\data\
ngram 1=1375
ngram 2=5292
ngram 3=8004

\1-grams:
-3.7416024	<unk>	0
0	<s>	-0.84135896
-1.6505094	</s>	0
-1.8583131	it	-0.31479597
-2.2562451	&apos;s	-0.20293756
-3.3554754	another	-0.1626026
-3.4471881	hot	-0.10445752
-1.9576963	and	-0.2675241
-3.6142566	sunny	-0.10445752
-3.6142566	Southern	-0.10445752
-3.6142566	California	-0.10445752
-2.8027542	day	-0.18700783
-1.1233722	.	-0.9115479
-1.8583131	the	-0.15034151
-3.6142566	temperature	-0.10445752
-2.0217564	in	-0.31327462
-3.6142566	downtown	-0.10445752
-3.6142566	Los	-0.10445752
-3.6142566	Angeles	-0.10445752
-2.2007294	is	-0.168301
-3.6142566	29	-0.10445752
-3.6142566	°	-0.10445752
-3.6142566	C	-0.10445752
-1.8241593	...	-0.81435007
-2.5672452	at	-0.1297473
-2.8582652	night	-0.2054477
-3.0867074	will	-0.10445752
-3.4471881	drop	-0.10445752
-1.8764532	to	-0.29997334
-1.9151777	I	-0.37047154
-2.8582652	think	-0.22886129
-2.510521	about	-0.15609792
-1.9151777	that	-0.3020485
-3.3554754	left	-0.10445752
-2.8582652	him	-0.15383992
-3.6142566	Greyhound	-0.10445752
-3.3554754	station	-0.10445755
-3.6142566	West	-0.10445752
-2.2139573	of	-0.18237983
-3.6142566	Santa	-0.10445752
-3.6142566	Fe	-0.10445752
-2.2562451	we	-0.23633686
-3.0867074	were	-0.10445755
-3.6142566	17	-0.10445752
-2.5986516	but	-0.23038036
-2.6325076	he	-0.191396
-2.4372928	was	-0.12109855
-3.4471881	sweet	-0.10445752
-3.0867074	true	-0.20163555
-3.4471881	still	-0.10445752
-2.7093415	did	-0.2679034
-2.1633039	what	-0.39884362
-3.0867074	had	-0.16711563
-2.3556263	do	-0.31253695
-3.3554754	Cause	-0.1423435
-2.2713084	just	-0.14098611
-3.4471881	knew	-0.10445752
-3.6142566	Summer	-0.10445752
-2.8027542	:	-0.10445752
-3.6142566	Sunday	-0.10445752
-3.6142566	nights	-0.10445752
-3.3554754	&apos;d	-0.10445755
-3.6142566	sink	-0.10445752
-2.6325076	into	-0.13930894
-3.2006238	our	-0.10445752
-3.6142566	seats	-0.10445752
-2.460357	right	-0.2758513
-2.5986516	as	-0.17421003
-2.4372928	they	-0.16859291
-3.6142566	dimmed	-0.10445752
-2.7093415	out	-0.22505644
-2.460357	all	-0.21741796
-3.6142566	lights	-0.10445755
-1.9151777	a	-0.15961279
-3.6142566	Technicolor	-0.10445752
-3.2006238	world	-0.10445752
-2.8582652	made	-0.13255773
-2.9965477	music	-0.12934417
-3.6142566	machine	-0.10445752
-3.2006238	called	-0.10445752
-2.2007294	me	-0.28546157
-2.6325076	be	-0.20857155
-2.0484445	on	-0.31703177
-3.6142566	screen	-0.10445752
-3.3554754	live	-0.10445752
-3.4471881	inside	-0.10445752
-3.0867074	each	-0.33727303
-3.6142566	scene	-0.10445752
-1.8703219	&quot;	-0.33391687
-3.3554754	without	-0.10445755
-3.6142566	nickel	-0.10445752
-2.286913	my	-0.14622502
-3.0867074	name	-0.17685308
-3.6142566	Hopped	-0.10445752
-3.6142566	bus	-0.10445752
-1.6325362	,	-0.33834192
-2.415392	here	-0.39797086
-3.3554754	came	-0.10445755
-2.6692276	could	-0.2127813
-3.6142566	brave	-0.10445752
-2.8582652	or	-0.10445752
-3.6142566	insane	-0.10445752
-2.9219258	&apos;ll	-0.21940218
-2.5986516	have	-0.25830922
-2.6325076	see	-0.2267046
-2.9965477	maybe	-0.13255773
-3.6142566	sleepy	-0.10445752
-3.4471881	town	-0.10445752
-3.4471881	sit	-0.10445755
-2.460357	one	-0.18338625
-2.3030992	are	-0.39672
-2.9965477	down	-0.1423435
-3.3554754	face	-0.10445755
-3.0867074	used	-0.51895326
-2.6692276	know	-0.2519062
-3.6142566	Climb	-0.10445752
-2.8027542	these	-0.12471193
-3.6142566	hills	-0.10445752
-3.6142566	&apos;m	-0.10445752
-3.6142566	reaching	-0.10445752
-2.1515126	for	-0.25564405
-3.4471881	heights	-0.10445752
-3.6142566	chasing	-0.10445752
-3.4471881	shine	-0.10445752
-2.753541	when	-0.20426315
-2.9219258	let	-0.19535272
-1.7093756	you	-0.333619
-2.7093415	get	-0.16410172
-2.460357	up	-0.19968916
-2.753541	off	-0.17894131
-3.6142566	ground	-0.10445752
-3.4471881	morning	-0.1626026
-3.6142566	rolls	-0.10445752
-3.3554754	around	-0.10445752
-3.3554754	And	-0.10445752
-3.3554754	sun	-0.10445752
-3.0867074	hear	-0.17158301
-3.6142566	&apos;em	-0.10445752
-3.3554754	ev	-0.1838532
-3.6142566	&apos;ry	-0.10445752
-3.6142566	rhythms	-0.10445752
-3.6142566	canyons	-0.10445752
-2.9219258	never	-0.12934417
-3.6142566	fade	-0.10445752
-3.2006238	away	-0.1626026
-3.6142566	ballads	-0.10445752
-3.6142566	barrooms	-0.10445752
-2.9965477	by	-0.10445755
-3.0867074	those	-0.10445755
-2.7093415	who	-0.13930894
-3.3554754	before	-0.10445755
-2.8582652	say	-0.23667656
-3.3554754	gotta	-0.10445752
-2.9219258	want	-0.22176991
-2.9219258	more	-0.10445752
-2.319912	so	-0.23881078
-3.6142566	bang	-0.10445752
-3.4471881	door	-0.10445752
-3.2006238	even	-0.10445752
-3.6142566	answer	-0.10445752
-2.7093415	no	-0.25812256
-3.6142566	money	-0.10445752
-3.4471881	running	-0.10445752
-3.4471881	low	-0.10445752
-3.6142566	dusty	-0.10445752
-3.6142566	mic	-0.10445752
-3.6142566	neon	-0.10445752
-3.6142566	glow	-0.10445752
-2.9219258	need	-0.1952326
-3.6142566	someday	-0.10445752
-3.6142566	sing	-0.10445752
-3.4471881	song	-0.10445752
-3.6142566	small-town	-0.10445752
-3.6142566	kid	-0.10445752
-2.6692276	come	-0.24326932
-3.6142566	along	-0.10445752
-2.8582652	thing	-0.12934417
-3.6142566	push	-0.10445752
-2.6325076	go	-0.25668278
-3.6142566	Sun	-0.10445752
-3.4471881	has	-0.10445752
-3.6142566	begun	-0.10445752
-3.6142566	nan	-0.10445752
-2.510521	not	-0.1675219
-3.3554754	believe	-0.10445752
-3.6142566	happening	-0.10445752
-3.6142566	swear	-0.10445752
-3.3554754	God	-0.10445755
-2.6325076	she	-0.15921132
-3.4471881	wrecked	-0.10445755
-3.6142566	completely	-0.10445752
-1.8352481	!	-0.69542253
-3.6142566	was-	-0.10445752
-3.4471881	pure	-0.10445755
-3.4471881	insanity	-0.10445752
-1.579562	?	-0.89737594
-3.4471881	lunacy	-0.1838532
-2.9965477	his	-0.17685308
-3.3554754	problem	-0.10445755
-2.9965477	should	-0.14520963
-2.510521	-	-0.24812537
-3.6142566	Cappuccino	-0.10445752
-3.0867074	please	-0.1838532
-3.6142566	Right	-0.10445752
-3.6142566	course	-0.10445752
-3.6142566	On	-0.10445752
-2.8582652	us	-0.12471193
-3.0867074	Oh	-0.16485326
-3.6142566	thank	-0.10445752
-3.6142566	insist	-0.10445752
-2.9219258	audition	-0.12934417
-3.4471881	Shit	-0.10445752
-2.6325076	Mia	-0.4125536
-2.7093415	where	-0.24520238
-2.9965477	&apos;re	-0.16632394
-2.753541	going	-0.28476423
-3.4471881	five	-0.10445752
-3.2006238	after	-0.10445752
-3.4471881	You	-0.1160684
-2.9219258	better	-0.1367247
-3.4471881	early	-0.10445752
-3.0867074	tomorrow	-0.10445752
-3.2006238	Okay	-0.2619964
-2.510521	good	-0.22541386
-3.3554754	crazy	-0.10445755
-2.7093415	would	-0.15266818
-3.4471881	died	-0.10445752
-3.0867074	No	-0.23382197
-3.4471881	Turner	-0.22975369
-3.4471881	fine	-0.22975369
-3.6142566	uhm	-0.10445752
-3.3554754	wait	-0.10445752
-3.3554754	until	-0.10445755
-3.6142566	Denver	-0.10445752
-2.8027542	tell	-0.24697562
-2.6325076	her	-0.20417325
-3.2006238	happy	-0.1626026
-3.2006238	am	-0.20163555
-3.0867074	thought	-0.19488157
-2.6325076	don	-0.6739538
-2.6325076	&apos;t	-0.16805172
-3.6142566	guess	-0.10445752
-2.9965477	sorry	-0.29665476
-3.3554754	What	-0.12471193
-3.6142566	Ruby	-0.10445752
-3.6142566	Jessica	-0.10445752
-3.6142566	Tell	-0.10445752
-2.7093415	call	-0.16560608
-2.8027542	back	-0.27521464
-3.6142566	In	-0.10445752
-2.6325076	two	-0.13914852
-3.3554754	minutes	-0.15033412
-3.3554754	less	-0.1838532
-3.2006238	than	-0.10445752
-2.2416868	your	-0.19352196
-3.6142566	lunch	-0.10445752
-3.4471881	almost	-0.10445752
-3.0867074	done	-0.19018558
-3.3554754	Thank	-0.29710454
-3.3554754	Thanks	-0.22975369
-3.3554754	coming	-0.15033412
-3.6142566	Holy	-0.10445752
-3.6142566	shit	-0.10445752
-3.4471881	open	-0.10445752
-3.4471881	window	-0.1626026
-3.4471881	It	-0.10445755
-3.3554754	trying	-0.29710454
-2.9965477	give	-0.1626026
-2.753541	an	-0.1868998
-3.6142566	entrance	-0.10445752
-3.4471881	mine	-0.10445752
-2.9965477	How	-0.25370857
-3.4471881	same	-0.10445755
-3.4471881	Jen	-0.10445752
-2.286913	there	-0.39518997
-3.4471881	Rachel	-0.10445752
-3.6142566	They	-0.10445755
-3.6142566	worst	-0.10445752
-2.6692276	if	-0.21324715
-3.6142566	bet	-0.10445752
-2.753541	why	-0.14467847
-3.6142566	convention	-0.10445752
-3.6142566	bathroom	-0.10445752
-2.460357	people	-0.14969312
-2.753541	can	-0.20086059
-3.4471881	working	-0.10445752
-3.6142566	Sorry	-0.10445755
-2.9219258	didn	-0.6650813
-2.8582652	well	-0.15574405
-3.4471881	today	-0.22975369
-2.319912	like	-0.2726432
-3.3554754	four	-0.10445755
-3.3554754	things	-0.10445755
-3.6142566	inbox	-0.10445752
-3.4471881	perfect	-0.10445752
-3.6142566	submit	-0.10445752
-2.510521	now	-0.2547477
-3.2006238	fun	-0.20956653
-2.6325076	gonna	-0.20513675
-3.6142566	bunch	-0.10445752
-3.6142566	social	-0.10445752
-3.6142566	climbers	-0.10445752
-3.6142566	packed	-0.10445752
-3.4471881	big	-0.10445752
-3.6142566	glass	-0.10445752
-3.6142566	houses	-0.10445752
-2.2007294	this	-0.25902402
-3.6142566	looks	-0.10445752
-3.4471881	familiar	-0.22975369
-2.8582652	long	-0.15574405
-3.6142566	Come	-0.10445752
-3.6142566	A	-0.10445752
-2.9219258	time	-0.23484504
-3.0867074	else	-0.10445752
-2.9965477	very	-0.10445752
-3.6142566	Hollywood	-0.10445752
-3.6142566	cliche	-0.10445752
-3.4471881	crammed	-0.10445752
-3.4471881	room	-0.10445752
-2.7093415	make	-0.15784286
-3.4471881	together	-0.10445752
-3.4471881	disappointed	-0.10445752
-3.6142566	Lex	-0.10445752
-3.0867074	nothing	-0.1423435
-3.4471881	party	-0.10445752
-3.6142566	humanity	-0.10445752
-3.3554754	its	-0.10445755
-3.6142566	finest	-0.10445752
-2.8027542	got	-0.15574405
-3.6142566	invitation	-0.10445752
-3.6142566	address	-0.10445752
-3.0867074	some	-0.10445752
-3.6142566	medication	-0.10445752
-2.9965477	always	-0.10445752
-3.6142566	yes	-0.10445752
-3.4471881	little	-0.10445752
-3.4471881	chance	-0.10445752
-3.6142566	encounter	-0.10445752
-2.9219258	&apos;ve	-0.18006985
-3.6142566	waited	-0.10445752
-3.6142566	squeeze	-0.10445752
-3.4471881	bit	-0.10445755
-3.4471881	Tonight	-0.10445752
-3.6142566	mission	-0.10445752
-3.3554754	casting	-0.10445752
-3.4471881	real	-0.10445752
-3.3554754	help	-0.10445755
-3.6142566	impression	-0.10445752
-3.4471881	Then	-0.10445752
-3.6142566	&apos;rybody	-0.10445752
-3.4471881	knows	-0.10445755
-3.6142566	fast	-0.10445752
-3.6142566	lane	-0.10445752
-2.8027542	someone	-0.19888799
-3.6142566	crowd	-0.10445755
-3.6142566	fin	-0.10445752
-3.6142566	&apos;lly	-0.10445752
-3.4471881	lift	-0.22975369
-3.2006238	take	-0.15033412
-3.0867074	wanna	-0.17161685
-3.4471881	ready	-0.10445755
-3.4471881	found	-0.10445752
-2.9219258	&apos;	-0.13255773
-3.6142566	til	-0.10445752
-3.6142566	discover	-0.10445752
-3.4471881	seeing	-0.10445752
-2.460357	with	-0.18746038
-3.4471881	stars	-0.10445755
-3.6142566	aligned	-0.10445752
-3.2006238	stay	-0.10445752
-3.6142566	behind	-0.10445752
-2.8027542	find	-0.1423435
-3.2006238	Hey	-0.1367247
-3.0867074	girl	-0.10445755
-3.3554754	only	-0.10445752
-2.7093415	really	-0.12153376
-3.6142566	Watching	-0.10445752
-3.3554754	while	-0.10445755
-3.6142566	keeps	-0.10445752
-3.6142566	spinning	-0.10445752
-3.6142566	round	-0.10445752
-3.4471881	somewhere	-0.10445755
-3.2006238	place	-0.13255773
-3.4471881	waiting	-0.10445752
-3.6142566	Flying	-0.10445752
-2.9219258	stop	-0.10445752
-3.6142566	sneaking	-0.10445752
-2.9219258	home	-0.28599754
-3.3554754	Mom	-0.1838532
-3.3554754	Dad	-0.10445755
-3.0867074	doing	-0.15383992
-3.4471881	kidding	-0.10445755
-3.6142566	Hoagy	-0.10445752
-3.6142566	Carmichael	-0.10445752
-3.6142566	sat	-0.10445752
-3.6142566	god	-0.10445752
-3.2006238	The	-0.1423435
-3.6142566	Baked	-0.10445752
-3.6142566	Potato	-0.10445752
-3.6142566	threw	-0.10445752
-3.6142566	imagine	-0.10445752
-3.4471881	sitting	-0.10445752
-3.6142566	throw	-0.10445752
-3.6142566	rug	-0.10445752
-2.9965477	said	-0.12471193
-3.6142566	Miles	-0.10445752
-3.6142566	Davis	-0.10445752
-3.6142566	pissed	-0.10445752
-3.6142566	insulting	-0.10445752
-3.3554754	unpack	-0.10445755
-3.4471881	boxes	-0.10445752
-3.3554754	them	-0.10445752
-3.0867074	own	-0.10445752
-2.9965477	club	-0.23484504
-3.2006238	Sebastian	-0.1626026
-3.6142566	broke	-0.10445752
-3.6142566	stalking	-0.10445752
-3.6142566	turned	-0.10445752
-3.6142566	samba-tapas	-0.10445752
-3.6142566	Samba	-0.10445752
-3.4471881	tapas	-0.22975369
-3.6142566	Pick	-0.10445752
-3.4471881	meet	-0.10445752
-3.3554754	anyone	-0.10445752
-3.6142566	N-no	-0.10445752
-3.6142566	gave	-0.10445752
-3.2006238	Yes	-0.2367977
-3.6142566	Does	-0.10445752
-2.5672452	jazz	-0.2731039
-3.6142566	Probably	-0.10445752
-2.9965477	talk	-0.1423435
-3.6142566	dont	-0.10445752
-3.0867074	doesn	-0.51895326
-3.6142566	matter	-0.10445752
-2.6692276	because	-0.18077676
-3.6142566	living	-0.10445752
-3.6142566	hermit	-0.10445752
-3.6142566	driving	-0.10445752
-3.6142566	insurance	-0.10445752
-3.6142566	Doesn	-0.10445752
-3.2006238	serious	-0.10445755
-2.9219258	then	-0.2054477
-2.9965477	guy	-0.13255773
-3.6142566	tattoo	-0.10445752
-3.6142566	blow	-0.10445752
-3.6142566	With	-0.10445752
-3.4471881	heart	-0.10445752
-3.6142566	gold	-0.10445752
-3.6142566	Get	-0.10445752
-3.6142566	Laura	-0.10445752
-3.4471881	plan	-0.10445752
-3.4471881	future	-0.22975369
-3.6142566	fault	-0.10445752
-3.4471881	Shanghaied	-0.22975369
-3.6142566	ripped	-0.10445752
-3.6142566	difference	-0.10445752
-3.3554754	romantic	-0.10445755
-3.3554754	everybody	-0.10445755
-3.6142566	shady	-0.10445752
-3.6142566	except	-0.10445752
-3.4471881	dirty	-0.10445752
-3.4471881	word	-0.10445755
-3.6142566	Unpaid	-0.10445752
-3.6142566	bills	-0.10445752
-3.3554754	acting	-0.10445755
-3.0867074	life	-0.10445752
-3.6142566	ropes	-0.10445752
-3.4471881	letting	-0.10445752
-3.3554754	hit	-0.10445755
-3.6142566	gets	-0.10445752
-3.6142566	tired	-0.10445752
-3.4471881	classic	-0.10445752
-3.6142566	rope-a-dope	-0.10445752
-3.6142566	Ali	-0.10445752
-2.8582652	love	-0.16058427
-3.3554754	change	-0.1838532
-3.6142566	locks	-0.10445752
-3.6142566	afford	-0.10445752
-3.6142566	phoenix	-0.10445752
-3.6142566	rising	-0.10445752
-2.5986516	from	-0.18628874
-3.6142566	ashes	-0.10445752
-3.6142566	Bill	-0.10445752
-3.6142566	thanks	-0.10445752
-3.3554754	welcome	-0.10445755
-3.3554754	looking	-0.1626026
-3.0867074	new	-0.1367247
-3.0867074	man	-0.15033412
-3.6142566	Excellent	-0.10445752
-3.6142566	Very	-0.10445752
-3.6142566	easy	-0.10445752
-2.9219258	work	-0.10445752
-2.5986516	play	-0.22677226
-3.6142566	setlist	-0.10445752
-3.4471881	though	-0.10445752
-3.6142566	anybody	-0.10445752
-3.6142566	cares	-0.10445752
-3.2006238	yeah	-0.1626026
-3.3554754	mean	-0.17372333
-2.9965477	other	-0.10445752
-3.6142566	correct	-0.10445752
-3.2006238	care	-0.10445752
-3.4471881	free	-0.10445752
-3.6142566	Although	-0.10445752
-3.6142566	worked	-0.10445752
-3.3554754	sort	-0.29710454
-3.4471881	type	-0.10445752
-3.6142566	system	-0.10445752
-3.6142566	none	-0.10445752
-3.3554754	That	-0.19018558
-3.6142566	Great	-0.10445752
-3.6142566	Mutual	-0.10445752
-3.6142566	decision	-0.10445752
-3.6142566	Made-	-0.10445752
-3.6142566	signed	-0.10445752
-3.3554754	whatever	-0.10445755
-3.0867074	yourself	-0.15033412
-3.4471881	Hello	-0.10445752
-3.0867074	nice	-0.19018558
-2.8582652	way	-0.26418045
-3.6142566	Karen	-0.10445752
-3.2006238	Seb	-0.22975369
-3.6142566	do-	-0.10445752
-3.3554754	saying	-0.1367247
-3.2006238	Yeah	-0.19888799
-3.6142566	fired	-0.10445752
-3.4471881	I-	-0.10445752
-2.8582652	..	-0.42204326
-2.6325076	too	-0.1367247
-3.4471881	late	-0.10445752
-3.6142566	warning	-0.10445752
-3.3554754	what-	-0.1838532
-3.6142566	planet	-0.10445752
-3.6142566	Don	-0.10445752
-3.4471881	fire	-0.10445752
-3.6142566	Christmas	-0.10445752
-3.6142566	decorations	-0.10445752
-3.6142566	luck	-0.10445752
-3.4471881	New	-0.10445755
-3.6142566	Year	-0.10445752
-3.3554754	heard	-0.10445755
-3.3554754	wanted	-0.15033412
-2.9219258	’	-0.19974476
-3.6142566	t	-0.10445752
-3.6142566	fissure	-0.10445752
-3.6142566	GT	-0.10445752
-3.6142566	scan	-0.10445752
-3.6142566	test	-0.10445752
-3.6142566	achromatopsia	-0.10445752
-3.6142566	D.O.A.	-0.10445752
-3.6142566	23rd	-0.10445752
-3.6142566	perp	-0.10445752
-3.4471881	laughing	-0.10445752
-3.6142566	P.D.	-0.10445752
-3.6142566	Damn	-0.10445752
-3.6142566	Miranda	-0.10445752
-3.6142566	Rights	-0.10445752
-3.6142566	classroom	-0.10445752
-3.6142566	s	-0.10445755
-3.6142566	Lady	-0.10445752
-3.6142566	trippin	-0.10445752
-3.6142566	Jamal	-0.10445752
-3.3554754	Hi	-0.19974476
-3.6142566	friend	-0.10445752
-3.3554754	Carlo	-0.1838532
-3.6142566	This	-0.10445752
-3.6142566	Nice	-0.10445752
-3.6142566	writer	-0.10445752
-3.6142566	knack	-0.10445752
-3.6142566	building	-0.10445752
-3.3554754	lot	-0.10445755
-3.4471881	heat	-0.10445752
-3.6142566	buzz	-0.10445752
-3.4471881	talking	-0.1838532
-3.3554754	exciting	-0.29710454
-3.6142566	hard	-0.10445752
-3.6142566	validated	-0.10445752
-3.2006238	grab	-0.15033412
-3.6142566	drink	-0.10445752
-3.4471881	any	-0.10445752
-3.6142566	requests	-0.10445752
-3.3554754	front	-0.10445752
-3.6142566	Ran	-0.10445752
-3.6142566	fantastic	-0.10445752
-3.4471881	suggestion	-0.10445752
-3.4471881	piano	-0.10445752
-3.6142566	tickle	-0.10445752
-3.6142566	ivories	-0.10445752
-3.4471881	three	-0.10445752
-3.6142566	walk	-0.10445752
-3.6142566	alone	-0.10445752
-3.6142566	avenue	-0.10445752
-3.6142566	Meet	-0.10445752
-3.6142566	Me	-0.10445752
-3.6142566	auburn	-0.10445752
-3.6142566	hair	-0.10445752
-3.6142566	tawny	-0.10445752
-3.3554754	eyes	-0.1838532
-3.3554754	kind	-0.1838532
-3.6142566	hypnotize	-0.10445752
-3.2006238	through	-0.10445752
-3.6142566	ran	-0.10445752
-3.3554754	far	-0.10445755
-3.4471881	couldn	-0.22975369
-3.3554754	remember	-0.10445752
-3.4471881	admit	-0.10445752
-3.4471881	curt	-0.10445752
-3.6142566	asshole	-0.10445752
-3.6142566	requesting	-0.10445752
-3.6142566	musician	-0.10445752
-3.2006238	just-	-0.10445752
-3.6142566	Lord	-0.10445752
-3.6142566	Can	-0.10445752
-3.6142566	borrow	-0.10445752
-3.6142566	wearing	-0.10445752
-3.6142566	Why	-0.10445752
-3.2006238	next	-0.10445752
-3.4471881	week	-0.10445752
-3.0867074	playing	-0.10445752
-3.6142566	firefighter	-0.10445752
-3.4471881	actress	-0.1626026
-2.6692276	look	-0.23220198
-3.3554754	seen	-0.10445755
-2.9965477	anything	-0.1838532
-3.3554754	coffee	-0.10445755
-3.6142566	shop	-0.10445752
-3.6142566	Warner	-0.10445752
-3.6142566	Bros.	-0.10445752
-3.6142566	barista	-0.10445752
-3.2006238	how	-0.1626026
-3.6142566	set	-0.10445752
-3.6142566	He	-0.10445752
-3.2006238	told	-0.10445752
-3.2006238	movies	-0.10445752
-3.6142566	Joseph	-0.10445752
-3.6142566	Campbell	-0.10445752
-3.2006238	idea	-0.1626026
-3.6142566	reimagining	-0.10445752
-3.6142566	Goldilocks	-0.10445752
-3.6142566	Three	-0.10445752
-3.6142566	Bears	-0.10445752
-3.6142566	perspective	-0.10445752
-3.6142566	bears	-0.10445752
-3.6142566	thrilling	-0.10445752
-3.6142566	franchise	-0.10445752
-3.6142566	cooped	-0.10445752
-3.6142566	George	-0.10445752
-3.6142566	Michael	-0.10445752
-3.3554754	keys	-0.1838532
-3.6142566	Will	-0.10445752
-3.6142566	able	-0.10445752
-3.6142566	my-	-0.10445752
-3.6142566	Please	-0.10445752
-3.6142566	Prius	-0.10445752
-3.2006238	does	-0.10445752
-3.6142566	green	-0.10445752
-3.6142566	ribbon	-0.10445752
-3.4471881	uh	-0.10445752
-3.6142566	comfortable	-0.10445752
-3.4471881	saving	-0.10445752
-3.0867074	much	-0.16711563
-3.6142566	choice	-0.10445752
-3.4471881	pretty	-0.1838532
-3.4471881	strange	-0.10445752
-2.9965477	keep	-0.1367247
-3.4471881	means	-0.10445752
-2.753541	something	-0.18006985
-3.6142566	doubt	-0.10445752
-3.4471881	car	-0.1838532
-3.3554754	put	-0.1838532
-3.6142566	chin	-0.10445752
-3.6142566	makes	-0.10445752
-3.4471881	head	-0.10445755
-3.6142566	antenna	-0.10445752
-3.6142566	gives	-0.10445752
-3.6142566	cancer	-0.10445752
-3.6142566	faster	-0.10445752
-3.6142566	quicker	-0.10445752
-3.6142566	evens	-0.10445752
-3.2006238	sounds	-0.10445752
-3.4471881	terrible	-0.10445752
-3.6142566	Just	-0.10445752
-3.6142566	Knight	-0.10445752
-3.4471881	shining	-0.10445752
-3.6142566	armor	-0.10445752
-3.6142566	Weirdo	-0.10445752
-3.6142566	huh	-0.10445752
-3.6142566	nearly	-0.10445752
-3.4471881	gone	-0.10445752
-3.6142566	turning	-0.10445752
-3.6142566	silver	-0.10445752
-3.6142566	stretches	-0.10445752
-3.6142566	sea	-0.10445752
-3.6142566	stumbled	-0.10445752
-3.4471881	view	-0.10445752
-3.6142566	tailor	-0.10445752
-3.6142566	shame	-0.10445752
-3.6142566	swirling	-0.10445752
-3.6142566	sky	-0.10445752
-3.4471881	shot	-0.10445752
-3.6142566	Really	-0.10445752
-3.6142566	spark	-0.10445752
-3.6142566	sight	-0.10445752
-3.4471881	waste	-0.22975369
-3.0867074	lovely	-0.19018558
-3.6142566	clear	-0.10445752
-3.6142566	But	-0.10445755
-3.6142566	cute	-0.10445752
-3.6142566	polyester	-0.10445752
-3.6142566	suit	-0.10445752
-3.6142566	wool	-0.10445752
-3.6142566	fall	-0.10445752
-3.6142566	appeals	-0.10445752
-3.4471881	To	-0.10445752
-3.6142566	heels	-0.10445752
-3.4471881	feels	-0.10445752
-3.6142566	romance	-0.10445752
-3.6142566	frankly	-0.10445752
-3.3554754	feeling	-0.10445755
-3.6142566	Is	-0.10445752
-3.6142566	agree	-0.10445752
-3.3554754	Greg	-0.10445755
-3.6142566	soon	-0.10445752
-3.2006238	Bye	-0.17158301
-3.6142566	ride	-0.10445752
-3.6142566	Excuse	-0.10445752
-3.6142566	gluten	-0.10445752
-3.6142566	refund	-0.10445752
-3.2006238	check	-0.1626026
-3.6142566	closing	-0.10445752
-3.4471881	Friday	-0.22975369
-3.6142566	close	-0.10445752
-3.6142566	schedule	-0.10445752
-3.2006238	okay	-0.26889893
-3.6142566	Fix	-0.10445752
-3.6142566	apron	-0.10445752
-3.3554754	again	-0.1838532
-3.6142566	meetings	-0.10445752
-3.6142566	studio	-0.10445752
-3.6142566	heads	-0.10445752
-3.4471881	basically	-0.22975369
-3.6142566	run	-0.10445752
-3.4471881	past	-0.10445752
-3.6142566	guard	-0.10445752
-3.6142566	gates	-0.10445752
-3.6142566	20	-0.10445752
-3.4471881	break	-0.10445752
-3.4471881	ten	-0.10445752
-3.6142566	hide	-0.10445752
-3.4471881	actually	-0.10445752
-3.6142566	Humphrey	-0.10445752
-3.4471881	Bogart	-0.10445752
-3.6142566	Ingrid	-0.10445752
-3.6142566	Bergman	-0.10445752
-3.6142566	looked	-0.10445752
-3.4471881	Casablanca	-0.10445752
-3.4471881	Wow	-0.22975369
-3.4471881	across	-0.22975369
-3.4471881	street	-0.10445752
-3.4471881	amazing	-0.10445752
-2.9219258	been	-0.12153376
-3.6142566	month	-0.10445752
-3.0867074	great	-0.3640513
-3.3554754	anyway	-0.29710454
-3.2006238	being	-0.15033412
-3.3554754	stuff	-0.10445755
-3.4471881	5	-0.10445752
-3.6142566	miles	-0.10445752
-3.6142566	near	-0.10445752
-3.6142566	Van	-0.10445752
-3.6142566	Beek	-0.10445752
-3.6142566	swing	-0.10445752
-3.6142566	bands	-0.10445752
-3.6142566	Count	-0.10445752
-3.6142566	Basie	-0.10445752
-3.6142566	Chick	-0.10445752
-3.6142566	Webb	-0.10445752
-3.4471881	samba	-0.10445752
-3.6142566	serve	-0.10445752
-3.6142566	joke	-0.10445752
-3.2006238	history	-0.10445752
-3.6142566	L.A	-0.10445752
-3.6142566	worship	-0.10445752
-3.3554754	everything	-0.10445755
-3.6142566	value	-0.10445752
-3.4471881	roll	-0.10445752
-3.3554754	guys	-0.1626026
-3.6142566	rolling	-0.10445752
-3.2006238	shoot	-0.1626026
-3.6142566	lockdown	-0.10445752
-3.6142566	Action	-0.10445752
-3.6142566	My	-0.10445752
-3.4471881	aunt	-0.10445752
-3.6142566	traveling	-0.10445752
-3.6142566	theatre	-0.10445752
-3.6142566	company	-0.10445752
-3.6142566	grew	-0.10445752
-3.6142566	Boulder	-0.10445752
-3.4471881	City	-0.10445752
-3.6142566	Nevada	-0.10445752
-3.4471881	house	-0.10445752
-3.4471881	library	-0.10445752
-3.4471881	old	-0.22975369
-3.6142566	section	-0.10445752
-3.6142566	she-	-0.10445752
-3.4471881	took	-0.10445752
-3.4471881	spent	-0.10445752
-3.6142566	entire	-0.10445752
-3.6142566	watching	-0.10445752
-3.6142566	Notorious	-0.10445752
-3.6142566	Bringing	-0.10445752
-3.6142566	Up	-0.10445752
-3.6142566	Baby	-0.10445752
-3.6142566	Cut	-0.10445752
-3.3554754	cut	-0.10445755
-3.6142566	tapes	-0.10445752
-3.6142566	We	-0.10445755
-3.6142566	She	-0.10445752
-3.2006238	incredible	-0.33727303
-3.3554754	plays	-0.10445755
-3.4471881	bedroom	-0.10445752
-3.6142566	reenacting	-0.10445752
-3.6142566	scenes	-0.10445752
-3.6142566	wrote	-0.10445752
-3.6142566	college	-0.10445752
-3.0867074	years	-0.10445755
-3.6142566	last	-0.10445752
-3.6142566	teen	-0.10445752
-3.6142566	soap	-0.10445752
-3.6142566	pitched	-0.10445752
-3.4471881	Dangerous	-0.22975369
-3.6142566	Minds	-0.10445752
-3.6142566	meets	-0.10445752
-3.6142566	OC	-0.10445752
-3.6142566	lawyer	-0.10445752
-3.6142566	&apos;Cause	-0.10445755
-3.4471881	needs	-0.10445752
-3.6142566	lawyers	-0.10445752
-3.6142566	actresses	-0.10445752
-3.6142566	child	-0.10445752
-3.6142566	prodigy	-0.10445752
-3.6142566	playwright	-0.10445752
-3.6142566	modest	-0.10445752
-3.4471881	write	-0.10445752
-3.4471881	roles	-0.10445752
-3.6142566	interesting	-0.10445752
-3.6142566	pishi	-0.10445752
-3.4471881	kaka	-0.22975369
-3.6142566	Louis	-0.10445752
-3.6142566	Armstrong	-0.10445752
-3.4471881	played	-0.10445752
-3.6142566	marching	-0.10445752
-3.2006238	band	-0.15033412
-3.6142566	charts	-0.10445752
-3.6142566	given	-0.10445752
-3.6142566	auditioning	-0.10445752
-3.6142566	instead	-0.10445752
-3.4471881	probably	-0.10445752
-3.3554754	hate	-0.29710454
-3.6142566	listen	-0.10445752
-3.6142566	blanket	-0.10445752
-3.6142566	statement	-0.10445752
-3.6142566	context	-0.10445752
-3.6142566	comes	-0.10445752
-3.6142566	born	-0.10445752
-3.6142566	flophouse	-0.10445752
-3.6142566	Orleans	-0.10445752
-3.6142566	spoke	-0.10445752
-3.3554754	different	-0.10445755
-3.6142566	languages	-0.10445752
-3.6142566	communicate	-0.10445752
-3.4471881	Kenny	-0.10445752
-3.6142566	G	-0.10445752
-3.6142566	elevator	-0.10445752
-3.6142566	From	-0.10445752
-3.3554754	relaxing	-0.29710454
-3.6142566	Sidney	-0.10445752
-3.6142566	Bechet	-0.10445752
-3.4471881	somebody	-0.10445752
-3.2006238	wrong	-0.10445752
-3.4471881	note	-0.10445752
-3.6142566	hardly	-0.10445752
-3.6142566	KJAZZ	-0.10445752
-3.6142566	103	-0.10445752
-3.6142566	cocktail	-0.10445752
-3.4471881	everyone	-0.10445752
-3.2006238	over	-0.10445752
-3.6142566	part	-0.10445752
-3.6142566	stake	-0.10445752
-3.4471881	fellas	-0.22975369
-3.6142566	saxophonist	-0.10445752
-3.6142566	hijacked	-0.10445752
-3.6142566	trail	-0.10445752
-3.6142566	composing	-0.10445752
-3.6142566	rearranging	-0.10445752
-3.6142566	writing	-0.10445752
-3.6142566	melody	-0.10445752
-3.3554754	trumpet	-0.10445755
-3.6142566	player	-0.10445752
-3.6142566	so-	-0.10445752
-3.6142566	conflict	-0.10445752
-3.6142566	compromise	-0.10445752
-3.4471881	every	-0.1838532
-3.6142566	brand	-0.10445752
-3.4471881	dying	-0.10445752
-3.6142566	vine	-0.10445752
-3.4471881	says	-0.22975369
-3.4471881	Let	-0.10445755
-3.6142566	die	-0.10445752
-3.6142566	watch	-0.10445752
-3.4471881	whenever	-0.10445752
-3.6142566	however	-0.10445752
-3.6142566	Dolan	-0.10445752
-3.4471881	missed	-0.10445752
-3.6142566	callback	-0.10445752
-3.6142566	TV	-0.10445752
-3.3554754	show	-0.1838532
-3.6142566	telling	-0.10445752
-3.6142566	Congratulations	-0.10445752
-3.2006238	feel	-0.15033412
-3.6142566	negative	-0.10445752
-3.6142566	Rebel	-0.10445752
-3.6142566	Without	-0.10445752
-3.6142566	bullets	-0.10445752
-3.6142566	Rialto	-0.10445752
-3.4471881	research	-0.22975369
-3.6142566	For	-0.10445752
-3.6142566	Monday	-0.10445752
-3.6142566	o	-0.10445752
-3.6142566	&apos;clock	-0.10445752
-3.0867074	start	-0.1423435
-3.4471881	wonderful	-0.10445752
-2.9965477	dream	-0.17158301
-3.6142566	cannot	-0.10445752
-3.6142566	Stand	-0.10445752
-3.6142566	options	-0.10445752
-3.4471881	either	-0.10445752
-3.3554754	follow	-0.29710454
-3.6142566	rules	-0.10445752
-3.6142566	Capisce	-0.10445752
-3.3554754	&apos;s-	-0.10445755
-3.6142566	babe	-0.10445752
-3.6142566	space	-0.10445752
-3.4471881	brother	-0.10445752
-3.6142566	landed	-0.10445752
-3.6142566	forget	-0.10445752
-3.4471881	forgot	-0.22975369
-3.0867074	tonight	-0.20163555
-3.6142566	changed	-0.10445752
-3.6142566	Josh	-0.10445752
-3.6142566	picking	-0.10445752
-3.6142566	surround	-0.10445752
-3.4471881	sound	-0.10445752
-3.6142566	setup	-0.10445752
-3.4471881	movie	-0.10445752
-3.3554754	theater	-0.10445755
-3.6142566	theaters	-0.10445752
-3.4471881	days	-0.22975369
-3.6142566	smell	-0.10445752
-3.3554754	bad	-0.1626026
-3.6142566	cold	-0.10445752
-3.6142566	quality	-0.10445752
-3.6142566	Many	-0.10445752
-3.6142566	hold	-0.10445752
-3.6142566	second	-0.10445752
-3.6142566	Well	-0.10445752
-3.6142566	Indonesia	-0.10445752
-3.6142566	track	-0.10445752
-3.6142566	honestly	-0.10445752
-3.6142566	changing	-0.10445752
-3.6142566	five-star	-0.10445752
-3.6142566	jungle-eco	-0.10445752
-3.6142566	resort	-0.10445752
-3.6142566	Amazing	-0.10445752
-3.4471881	thinking	-0.10445752
-3.4471881	Nicaragua	-0.10445752
-3.6142566	developed	-0.10445752
-3.6142566	underdeveloped	-0.10445752
-3.6142566	know-	-0.10445752
-3.6142566	safe	-0.10445752
-3.6142566	script	-0.10445752
-3.6142566	woman	-0.10445752
-3.6142566	happen	-0.10445752
-3.6142566	everytime	-0.10445752
-3.3554754	Keith	-0.1838532
-3.4471881	went	-0.10445752
-3.6142566	school	-0.10445752
-3.6142566	So	-0.10445755
-3.6142566	busy	-0.10445752
-3.6142566	combo	-0.10445752
-3.4471881	cool	-0.22975369
-3.4471881	Are	-0.1838532
-3.3554754	sure	-0.10445755
-3.6142566	pays	-0.10445752
-3.6142566	end	-0.10445752
-3.6142566	Genius	-0.10445752
-3.4471881	nostalgic	-0.10445752
-3.6142566	point	-0.10445752
-3.6142566	Fuck	-0.10445752
-3.6142566	em	-0.10445752
-3.6142566	truly	-0.10445752
-3.6142566	Chicken	-0.10445752
-3.6142566	Stick	-0.10445752
-3.6142566	apostrophe	-0.10445752
-3.6142566	Charlie	-0.10445752
-3.6142566	Parker	-0.10445752
-3.6142566	nickname	-0.10445752
-3.6142566	loves	-0.10445752
-3.2006238	chicken	-0.20163555
-3.6142566	Bird	-0.10445752
-3.6142566	beer	-0.10445752
-3.6142566	know.I	-0.10445752
-3.6142566	drinks	-0.10445752
-3.6142566	also	-0.10445752
-3.6142566	dropping	-0.10445752
-3.6142566	spot	-0.10445752
-3.6142566	refuse	-0.10445752
-3.6142566	Your	-0.10445752
-3.4471881	whole	-0.10445755
-3.6142566	Lighthouse	-0.10445752
-3.6142566	offered	-0.10445752
-3.4471881	gig	-0.10445752
-3.4471881	weird	-0.10445752
-3.6142566	between	-0.10445752
-3.6142566	seemed	-0.10445752
-3.6142566	kinda	-0.10445752
-3.6142566	offer	-0.10445752
-3.2006238	job	-0.28874776
-3.6142566	All	-0.10445752
-3.6142566	Here	-0.10445752
-3.6142566	definitely	-0.10445752
-3.6142566	triumph	-0.10445752
-3.6142566	getting	-0.10445752
-3.6142566	paid	-0.10445752
-3.6142566	paying	-0.10445752
-3.4471881	nobody	-0.10445752
-3.4471881	yet	-0.22975369
-3.6142566	um	-0.10445752
-3.6142566	steady	-0.10445752
-3.6142566	figuring	-0.10445752
-3.6142566	gilly	-0.10445752
-3.6142566	lately	-0.10445752
-3.6142566	having	-0.10445752
-3.4471881	wasn	-0.22975369
-3.6142566	deal	-0.10445752
-3.6142566	distribution	-0.10445752
-3.6142566	Universal	-0.10445752
-3.6142566	imprint	-0.10445752
-3.6142566	road	-0.10445752
-3.4471881	pay	-0.10445752
-3.6142566	thousand	-0.10445752
-3.6142566	bucks	-0.10445752
-3.6142566	plus	-0.10445752
-3.6142566	ticket	-0.10445752
-3.6142566	revenue	-0.10445752
-3.6142566	merchandising	-0.10445752
-3.6142566	Yup	-0.10445752
-3.4471881	save	-0.22975369
-3.6142566	listening	-0.10445752
-3.6142566	90	-0.10445752
-3.6142566	year	-0.10445752
-3.6142566	olds	-0.10445752
-3.6142566	kids	-0.10445752
-3.6142566	young	-0.10445752
-3.6142566	obsessed	-0.10445752
-3.6142566	Clarke	-0.10445752
-3.6142566	Thelonious	-0.10445752
-3.6142566	Monk	-0.10445752
-3.6142566	revolutionaries	-0.10445752
-3.6142566	revolutionary	-0.10445752
-3.6142566	such	-0.10445752
-3.6142566	traditionalist	-0.10445752
-3.6142566	holding	-0.10445752
-3.6142566	pain	-0.10445752
-3.4471881	ass	-0.10445752
-3.6142566	There	-0.10445752
-3.6142566	felt	-0.10445752
-3.4471881	first	-0.10445752
-3.6142566	embrace	-0.10445752
-3.6142566	shared	-0.10445752
-3.4471881	dreams	-0.10445752
-3.4471881	finally	-0.10445752
-3.2006238	wants	-0.1626026
-3.6142566	bars	-0.10445752
-3.6142566	smokescreen	-0.10445752
-3.6142566	crowded	-0.10445752
-3.6142566	restaurants	-0.10445752
-3.6142566	rush	-0.10445752
-3.6142566	glance	-0.10445752
-3.4471881	touch	-0.10445752
-3.6142566	dance	-0.10445752
-3.6142566	light	-0.10445752
-3.6142566	skies	-0.10445752
-3.6142566	send	-0.10445752
-3.6142566	reeling	-0.10445752
-3.6142566	voice	-0.10445752
-3.3554754	alright	-0.10445755
-3.6142566	i	-0.10445752
-3.6142566	rat-tat-tat	-0.10445752
-3.6142566	shined	-0.10445752
-3.6142566	brightly	-0.10445752
-3.6142566	moving	-0.10445752
-3.6142566	body	-0.10445752
-3.6142566	beat	-0.10445752
-3.6142566	taking	-0.10445752
-3.6142566	ve	-0.10445752
-3.6142566	‘	-0.10445752
-3.6142566	bout	-0.10445752
-3.4471881	try	-0.10445752
-3.6142566	dancing	-0.10445752
-3.6142566	rhythm	-0.10445752
-3.6142566	passion	-0.10445752
-3.0867074	baby	-0.15033412
-3.6142566	Light	-0.10445752
-3.6142566	burn	-0.10445752
-3.6142566	tables	-0.10445752
-3.3554754	turn	-0.10445755
-3.6142566	turns	-0.10445752
-3.6142566	riot	-0.10445752
-3.6142566	Lets	-0.10445752
-3.6142566	reckless	-0.10445752
-3.6142566	tear	-0.10445752
-3.6142566	floor	-0.10445752
-3.6142566	loud	-0.10445752
-3.6142566	Boston	-0.10445752
-3.6142566	Dallas	-0.10445752
-3.6142566	haven	-0.10445752
-3.3554754	miss	-0.1838532
-3.4471881	bye	-0.10445752
-3.6142566	Surprise	-0.10445752
-3.4471881	leave	-0.10445752
-3.4471881	glad	-0.10445752
-3.4471881	nervous	-0.10445755
-3.6142566	Because	-0.10445752
-3.6142566	Pishi	-0.10445752
-3.6142566	stage	-0.10445752
-3.6142566	perform	-0.10445752
-3.6142566	terrified	-0.10445752
-3.6142566	lucky	-0.10445752
-3.6142566	6	-0.10445752
-3.6142566	45	-0.10445752
-3.2006238	Boise	-0.2367977
-3.6142566	knock	-0.10445752
-3.6142566	bucket	-0.10445752
-3.6142566	list	-0.10445752
-3.6142566	wish	-0.10445752
-3.0867074	tour	-0.1367247
-3.4471881	rehearse	-0.10445752
-3.4471881	anywhere	-0.10445752
-3.4471881	mean-	-0.10445752
-3.6142566	weeks	-0.10445752
-3.6142566	best	-0.10445752
-3.4471881	finish	-0.10445752
-3.6142566	recording	-0.10445752
-3.6142566	records	-0.10445752
-3.4471881	record	-0.22975369
-3.6142566	haul	-0.10445755
-3.6142566	hadn	-0.10445752
-3.4471881	successful	-0.10445752
-3.6142566	important	-0.10445752
-3.6142566	y-you	-0.10445752
-3.6142566	Months	-0.10445752
-3.6142566	is-	-0.10445752
-3.6142566	feasibly	-0.10445752
-3.6142566	be-	-0.10445752
-3.4471881	couple	-0.22975369
-3.6142566	least	-0.10445752
-3.6142566	matters	-0.10445755
-3.6142566	&apos;t-	-0.10445752
-3.6142566	T-to	-0.10445752
-3.6142566	understand-	-0.10445752
-3.4471881	aren	-0.22975369
-3.6142566	celebrating	-0.10445752
-3.6142566	starting	-0.10445752
-3.6142566	likes	-0.10445752
-3.3554754	supposed	-0.29710454
-3.6142566	Jingle	-0.10445752
-3.6142566	Bells	-0.10445752
-3.6142566	Scrutting	-0.10445752
-3.6142566	pennies	-0.10445752
-3.4471881	passionate	-0.22975369
-3.6142566	remind	-0.10445752
-3.6142566	forgotten	-0.10445752
-3.6142566	Not	-0.10445752
-3.6142566	experience	-0.10445752
-3.4471881	grow	-0.22975369
-3.6142566	sudden	-0.10445752
-3.6142566	problems	-0.10445752
-3.6142566	earlier	-0.10445752
-3.4471881	goddamn	-0.10445752
-3.6142566	dotted	-0.10445752
-3.6142566	line	-0.10445752
-3.6142566	pointing	-0.10445752
-3.6142566	followed	-0.10445752
-3.6142566	sticking	-0.10445752
-3.6142566	Guys	-0.10445752
-3.6142566	their	-0.10445752
-3.6142566	lives	-0.10445752
-3.6142566	th-th-th-th-that	-0.10445752
-3.4471881	enjoy	-0.10445752
-3.6142566	Since	-0.10445752
-3.4471881	liked	-0.10445752
-3.6142566	&apos;ll-	-0.10445752
-3.6142566	At	-0.10445752
-3.6142566	7	-0.10445752
-3.6142566	photo	-0.10445752
-3.6142566	Mojo	-0.10445752
-3.6142566	Thursday	-0.10445752
-3.6142566	Tonya	-0.10445752
-3.6142566	camera	-0.10445752
-3.6142566	bloody	-0.10445752
-3.0867074	beautiful	-0.26889893
-3.4471881	keyboard	-0.10445755
-3.3554754	bite	-0.29710454
-3.4471881	lip	-0.1626026
-3.6142566	concentrating	-0.10445752
-3.6142566	piece	-0.10445752
-3.6142566	Bite	-0.10445752
-3.6142566	move	-0.10445752
-3.6142566	glasses	-0.10445752
-3.6142566	nose	-0.10445752
-3.4471881	further	-0.22975369
-3.6142566	moody	-0.10445752
-3.6142566	pianist	-0.10445752
-3.4471881	myself	-0.10445752
-3.6142566	quit	-0.10445752
-3.6142566	blame	-0.10445752
-3.6142566	embarrassing	-0.10445752
-3.6142566	Nobody	-0.10445752
-3.6142566	showed	-0.10445752
-3.4471881	anymore	-0.1838532
-3.6142566	Yep	-0.10445752
-3.6142566	reach	-0.10445752
-3.6142566	number	-0.10445752
-3.6142566	cell	-0.10445752
-3.4471881	might	-0.10445752
-3.6142566	won	-0.10445752
-3.6142566	Jane	-0.10445752
-3.3554754	Amy	-0.1838532
-3.6142566	Brandt	-0.10445752
-3.6142566	hell	-0.10445752
-3.6142566	fucking	-0.10445752
-3.6142566	noise	-0.10445752
-3.6142566	news	-0.10445752
-3.6142566	director	-0.10445752
-3.6142566	loved	-0.10445752
-3.6142566	huge	-0.10445752
-3.6142566	kill	-0.10445752
-3.6142566	quiet	-0.10445755
-3.6142566	If	-0.10445752
-3.6142566	wake	-0.10445752
-3.6142566	neighbors	-0.10445752
-3.4471881	sense	-0.22975369
-3.6142566	call-	-0.10445752
-3.6142566	police	-0.10445752
-3.6142566	Because-	-0.10445752
-3.6142566	million	-0.10445752
-3.6142566	auditions	-0.10445752
-3.6142566	happens	-0.10445752
-3.6142566	interrupted	-0.10445752
-3.6142566	sandwich	-0.10445752
-3.4471881	crying	-0.10445752
-3.6142566	prettier	-0.10445752
-3.6142566	the-	-0.10445752
-3.4471881	enough	-0.10445752
-3.6142566	Maybe	-0.10445752
-3.6142566	pipe	-0.10445752
-3.6142566	six	-0.10445752
-3.6142566	hurts	-0.10445752
-3.6142566	30	-0.10445752
-3.6142566	8	-0.10445752
-3.6142566	00	-0.10445752
-3.6142566	Frank	-0.10445752
-3.6142566	Pleasure	-0.10445752
-3.6142566	film	-0.10445752
-3.6142566	shoots	-0.10445752
-3.6142566	Paris	-0.10445752
-3.6142566	process	-0.10445752
-3.6142566	build	-0.10445752
-3.6142566	character	-0.10445752
-3.6142566	three-month	-0.10445752
-3.6142566	rehearsal	-0.10445752
-3.6142566	four-month	-0.10445752
-3.6142566	story	-0.10445752
-3.6142566	About	-0.10445752
-3.6142566	Anything	-0.10445752
-3.6142566	storyteller	-0.10445752
-3.6142566	stories	-0.10445752
-3.6142566	abroad	-0.10445752
-3.6142566	jumped	-0.10445752
-3.6142566	river	-0.10445752
-3.6142566	once	-0.10445752
-3.6142566	Barefoot	-0.10445752
-3.6142566	smiled	-0.10445752
-3.6142566	Leapt	-0.10445752
-3.6142566	tumbled	-0.10445752
-3.6142566	Seine	-0.10445752
-3.6142566	water	-0.10445752
-3.6142566	freezing	-0.10445752
-3.6142566	sneezing	-0.10445752
-3.6142566	ones	-0.10445752
-3.6142566	Foolish	-0.10445752
-3.6142566	may	-0.10445752
-3.6142566	seem	-0.10445752
-3.6142566	hearts	-0.10445752
-3.6142566	ache	-0.10445752
-3.6142566	mess	-0.10445752
-3.6142566	captured	-0.10445752
-3.6142566	Sky	-0.10445752
-3.6142566	ceiling	-0.10445752
-3.6142566	sunset	-0.10445752
-3.6142566	frame	-0.10445752
-3.6142566	lived	-0.10445752
-3.6142566	liquor	-0.10445752
-3.6142566	flicker	-0.10445752
-3.6142566	flame	-0.10445752
-3.6142566	madeness	-0.10445752
-3.6142566	key	-0.10445752
-3.6142566	colors	-0.10445752
-3.6142566	lead	-0.10445752
-3.6142566	Bring	-0.10445752
-3.6142566	rebels	-0.10445752
-3.6142566	ripples	-0.10445752
-3.6142566	pebbles	-0.10445752
-3.6142566	painters	-0.10445752
-3.6142566	poets	-0.10445752
-3.6142566	fools	-0.10445752
-3.6142566	trace	-0.10445752
-3.6142566	snow	-0.10445752
-3.6142566	Smiling	-0.10445752
-3.6142566	trough	-0.10445752
-3.6142566	expecting	-0.10445752
-3.6142566	Griffith	-0.10445752
-3.6142566	Park	-0.10445752
-3.6142566	Where	-0.10445752
-3.6142566	When	-0.10445752
-3.6142566	during	-0.10445752
-3.6142566	iced	-0.10445752
-3.6142566	coffees	-0.10445752
-3.6142566	Harris	-0.10445752
-3.6142566	Signature	-0.10445752
-3.6142566	See	-0.10445752
-3.6142566	Good	-0.10445752
-3.6142566	Myke	-0.10445752
-3.6142566	drawing	-0.10445752
-3.6142566	draw	-0.10445752
-3.4471881	Chelsea	-0.10445752
-3.6142566	Say	-0.10445752
-3.6142566	Mommy	-0.10445752
-3.6142566	Sleep	-0.10445752
-3.6142566	Have	-0.10445752
-3.6142566	sweetie	-0.10445752
-3.6142566	boy	-0.10445752
-3.6142566	Natalie	-0.10445752
-3.6142566	York	-0.10445752
-3.6142566	pull	-0.10445752
-3.6142566	dinner	-0.10445752
-3.6142566	Sure	-0.10445752
-3.6142566	Cal	-0.10445752
-3.6142566	Bennett	-0.10445752
-3.6142566	sax	-0.10445752
-3.6142566	Javier	-0.10445752
-3.6142566	Gonzalez	-0.10445752
-3.6142566	Nedra	-0.10445752
-3.6142566	Wheeler	-0.10445752
-3.6142566	bass	-0.10445752
-3.6142566	Clifton	-0.10445752
-3.4471881	Fou	-0.10445752
-3.6142566	Eddie	-0.10445752
-3.6142566	drums	-0.10445752
-3.6142566	careful	-0.10445752
-3.6142566	Khirye	-0.10445752
-3.6142566	Tyler	-0.10445752
-3.6142566	Subtitles	-0.10445752
-3.6142566	filmgeekroyalist	-0.10445752

\2-grams:
-1.6523706	it </s>	0
-0.8588567	day </s>	0
-0.3962109	. </s>	0
-0.27327532	... </s>	0
-1.4520872	night </s>	0
-1.9820127	I </s>	0
-1.051384	station </s>	0
-0.6357052	Fe </s>	0
-0.74864244	true </s>	0
-1.789609	do </s>	0
-0.9049282	knew </s>	0
-1.3836901	: </s>	0
-0.6357052	nights </s>	0
-1.6903877	right </s>	0
-1.051384	lights </s>	0
-1.3644967	made </s>	0
-0.6357052	machine </s>	0
-1.5129102	me </s>	0
-1.4990103	be </s>	0
-1.8397734	on </s>	0
-0.6357052	screen </s>	0
-0.6357052	scene </s>	0
-0.8203044	&quot; </s>	0
-1.3427376	name </s>	0
-0.6357052	insane </s>	0
-1.2807239	see </s>	0
-0.9049282	town </s>	0
-1.2861534	down </s>	0
-1.7571824	know </s>	0
-1.5132735	for </s>	0
-0.9049282	heights </s>	0
-0.9049282	shine </s>	0
-1.6079953	you </s>	0
-0.6357052	ground </s>	0
-1.2194152	around </s>	0
-1.2194152	sun </s>	0
-0.65602314	away </s>	0
-1.051384	before </s>	0
-1.3836901	more </s>	0
-0.9049282	door </s>	0
-0.6357052	glow </s>	0
-1.4723784	need </s>	0
-0.9049282	song </s>	0
-0.6357052	along </s>	0
-0.91906345	go </s>	0
-0.6357052	begun </s>	0
-0.6357052	nan </s>	0
-1.051384	wrecked </s>	0
-0.3202766	! </s>	0
-0.3079783	? </s>	0
-1.3941014	audition </s>	0
-1.6603854	good </s>	0
-1.4803448	call </s>	0
-1.5016744	two </s>	0
-1.051384	things </s>	0
-1.3173004	now </s>	0
-1.2861534	nothing </s>	0
-0.6357052	address </s>	0
-0.6357052	encounter </s>	0
-0.6357052	lane </s>	0
-1.051384	crowd </s>	0
-0.9049282	found </s>	0
-1.2739981	stars </s>	0
-0.6357052	aligned </s>	0
-1.2194152	stay </s>	0
-0.6357052	behind </s>	0
-1.4694526	find </s>	0
-1.4520872	then </s>	0
-1.3644967	guy </s>	0
-0.9049282	heart </s>	0
-1.2194152	life </s>	0
-1.4962903	love </s>	0
-1.1622645	looking </s>	0
-0.49585676	.. </s>	0
-0.9049282	fire </s>	0
-0.6357052	avenue </s>	0
-0.5398169	eyes </s>	0
-1.1485808	through </s>	0
-1.3176655	playing </s>	0
-0.9049282	gone </s>	0
-0.6357052	sea </s>	0
-0.6357052	sky </s>	0
-0.9049282	shot </s>	0
-0.6357052	sight </s>	0
-0.6357052	suit </s>	0
-0.6357052	heels </s>	0
-0.6357052	romance </s>	0
-1.051384	feeling </s>	0
-0.5398169	again </s>	0
-0.9049282	break </s>	0
-0.9049282	Bogart </s>	0
-1.3410039	dream </s>	0
-0.74864244	tonight </s>	0
-1.1622645	wants </s>	0
-0.6357052	bars </s>	0
-0.6357052	smokescreen </s>	0
-0.6357052	restaurants </s>	0
-0.6357052	glance </s>	0
-0.6357052	dance </s>	0
-0.6357052	skies </s>	0
-0.6357052	reeling </s>	0
-0.6357052	brightly </s>	0
-0.6357052	body </s>	0
-0.9049282	try </s>	0
-1.2322896	baby </s>	0
-0.6357052	riot </s>	0
-0.6357052	loud </s>	0
-0.9049282	Seine </s>	0
-0.6357052	freezing </s>	0
-0.6357052	sneezing </s>	0
-0.6357052	seem </s>	0
-0.6357052	ache </s>	0
-0.6357052	ceiling </s>	0
-0.6357052	frame </s>	0
-0.6357052	flicker </s>	0
-0.6357052	flame </s>	0
-0.6357052	rebels </s>	0
-0.6357052	pebbles </s>	0
-0.6357052	filmgeekroyalist </s>	0
-1.502766	<s> it	-0.5895965
-1.2273644	and it	-0.329221
-1.6960269	. it	-0.5211066
-1.9765948	in it	-0.082138516
-1.4443241	is it	-0.082138516
-1.8819523	to it	-0.082138516
-1.7764345	think it	-0.082138516
-1.34297	about it	-0.082138516
-1.367675	of it	-0.082138516
-1.2261603	but it	-0.23803733
-1.5082659	was it	-0.082138516
-2.0440168	what it	-0.082138516
-0.84191775	do it	-0.21151747
-1.6099718	as it	-0.082138516
-1.490725	on it	-0.082138516
-1.9668206	&quot; it	-0.51125765
-1.3405862	, it	-0.44327962
-1.5822749	or it	-0.082138516
-1.7351296	see it	-0.082138516
-1.4325584	maybe it	-0.082138516
-1.5707878	know it	-0.1517603
-1.5486373	let it	-0.19125976
-1.1461225	get it	-0.082138516
-1.4246053	And it	-0.082138516
-1.3992972	hear it	-0.082138516
-1.5875278	say it	-0.082138516
-1.1455758	want it	-0.082138516
-1.6120951	so it	-0.1517603
-1.7380862	! it	-0.082138516
-0.6484395	was- it	-0.082138516
-2.5378475	? it	-0.082138516
-1.6412661	Oh it	-0.082138516
-1.2030405	where it	-0.082138516
-1.0853606	until it	-0.082138516
-1.4489155	thought it	-0.082138516
-1.1915137	guess it	-0.082138516
-1.5641656	call it	-0.082138516
-1.1915137	open it	-0.082138516
-1.44066	give it	-0.082138516
-1.3223311	if it	-0.23803733
-1.0853606	Sorry it	-0.082138516
-0.9930067	like it	-0.082138546
-1.5836979	make it	-0.19125976
-1.7171558	with it	-0.082138516
-1.5559531	find it	-0.082138516
-0.6484395	threw it	-0.082138516
-1.525297	said it	-0.082138516
-0.6484395	turned it	-0.082138516
-1.6478045	because it	-0.082138516
-1.0853606	hit it	-0.082138516
-0.90688956	love it	-0.36297604
-0.6484395	afford it	-0.082138516
-1.1915137	just- it	-0.082138516
-1.0853606	seen it	-0.082138516
-1.2008281	how it	-0.082138516
-1.1915137	does it	-0.082138516
-0.6484395	doubt it	-0.082138516
-0.9289044	Is it	-0.082138516
-0.66768086	check it	-0.19125976
-0.6484395	schedule it	-0.082138516
-0.6484395	Cut it	-0.082138516
-1.1915137	over it	-0.082138516
-0.6484395	so- it	-0.082138516
-1.0853606	Let it	-0.082138516
-1.0853606	&apos;s- it	-0.19125976
-0.6484395	figuring it	-0.082138516
-0.6484395	felt it	-0.082138516
-0.6484395	send it	-0.082138516
-0.6484395	knock it	-0.082138516
-0.6484395	is- it	-0.082138516
-0.9289044	enjoy it	-0.082138516
-0.6484395	loved it	-0.082138516
-0.6484395	trace it	-0.082138516
-0.6484395	trough it	-0.082138516
-0.91431314	it &apos;s	-0.28022504
-1.0389453	that &apos;s	-0.17727369
-0.8925151	he &apos;s	-0.12815426
-1.5754526	what &apos;s	-0.11555577
-1.1749485	here &apos;s	-0.5914519
-1.4377114	one &apos;s	-0.19351183
-0.8580469	let &apos;s	-0.082138516
-1.6889484	who &apos;s	-0.082138516
-0.6612627	answer &apos;s	-0.082138516
-0.6612627	money &apos;s	-0.082138516
-1.6388221	need &apos;s	-0.082138516
-1.2145964	she &apos;s	-0.1517603
-1.7593522	where &apos;s	-0.082138516
-1.6271924	What &apos;s	-0.082138516
-1.3980639	It &apos;s	-0.17163996
-1.7837799	How &apos;s	-0.082138516
-0.5843884	there &apos;s	-0.11872518
-0.95370173	Tonight &apos;s	-0.082138516
-1.3268437	life &apos;s	-0.082138516
-1.3724875	play &apos;s	-0.082138516
-0.5997946	That &apos;s	-0.082138516
-0.68052536	Seb &apos;s	-0.1517603
-1.1213686	Greg &apos;s	-0.082138516
-0.95370173	Bogart &apos;s	-0.082138516
-0.6612627	joke &apos;s	-0.082138516
-0.95370173	She &apos;s	-0.082138516
-0.95370173	somebody &apos;s	-0.082138516
-1.1213686	Let &apos;s	-0.082138516
-0.6612627	Here &apos;s	-0.082138516
-0.6612627	There &apos;s	-0.082138516
-3.6091251	<s> another	-0.082138516
-2.7277346	&apos;s another	-0.5914519
-1.2692782	through another	-0.082138516
-1.270096	another hot	-0.082138516
-1.808804	too hot	-0.082138516
-1.4420955	<s> and	-0.16606839
-2.1558914	it and	-0.082138516
-0.9372	hot and	-0.082138516
-2.2722723	. and	-0.19351183
-0.9372	sweet and	-0.082138516
-1.4066368	world and	-0.082138516
-1.4578419	made and	-0.082138516
-1.4956986	music and	-0.082138516
-1.9712497	me and	-0.082138516
-2.04585	on and	-0.082138516
-2.0231895	&quot; and	-0.13896683
-1.4548496	, and	-0.13328087
-0.9487995	here and	-0.082138516
-1.801958	one and	-0.082138516
-1.0973037	face and	-0.082138516
-1.9637929	for and	-0.082138516
-1.8152181	you and	-0.082138516
-1.2888415	around and	-0.082138516
-0.6527687	mic and	-0.082138516
-1.8125075	go and	-0.082138516
-1.7996311	she and	-0.082138516
-2.1425629	- and	-0.082138516
-1.6797955	Oh and	-0.082138516
-1.9600314	&apos;re and	-0.082138516
-1.2888415	tomorrow and	-0.082138516
-1.0973037	crazy and	-0.082138516
-1.2068225	wait and	-0.082138516
-0.9372	Jen and	-0.082138516
-1.7449831	people and	-0.082138516
-1.9777745	this and	-0.082138516
-1.3536254	girl and	-0.082138516
-1.5307773	home and	-0.082138516
-1.1052436	Mom and	-0.082138516
-1.2888415	life and	-0.082138516
-1.3404143	play and	-0.082138516
-1.2962416	yourself and	-0.082138516
-0.6527687	hard and	-0.082138516
-0.6527687	hair and	-0.082138516
-1.0973037	far and	-0.082138516
-0.6527687	Goldilocks and	-0.082138516
-0.9372	terrible and	-0.082138516
-0.6527687	meetings and	-0.082138516
-1.0973037	everything and	-0.082138516
-1.3536254	years and	-0.082138516
-0.6527687	auditioning and	-0.082138516
-0.6527687	conflict and	-0.082138516
-0.9372	school and	-0.082138516
-0.6527687	drinks and	-0.082138516
-0.6527687	revenue and	-0.082138516
-0.6527687	Clarke and	-0.082138516
-0.9372	dreams and	-0.082138516
-0.9372	try and	-0.082138516
-0.6527687	Jane and	-0.082138516
-1.1052436	Amy and	-0.082138516
-0.6527687	auditions and	-0.082138516
-0.9372	crying and	-0.082138516
-0.9372	Paris and	-0.082138516
-0.6527687	rehearsal and	-0.082138516
-0.6527687	abroad and	-0.082138516
-2.6679442	and sunny	-0.082138516
-0.669639	sunny Southern	-0.082138516
-0.669639	Southern California	-0.082138516
-0.6850922	another day	-0.5914519
-0.6675189	California day	-0.082138516
-2.2358866	the day	-0.082138516
-2.555399	that day	-0.082138516
-2.0184648	one day	-0.082138516
-0.9660552	&apos;ry day	-0.082138516
-1.6022016	more day	-0.082138516
-1.5990369	your day	-0.082138516
-0.6675189	entire day	-0.082138516
-0.8777502	it .	-0.48603618
-1.3118646	&apos;s .	-0.082138516
-0.9303118	day .	-0.19125976
-1.3935459	in .	-0.082138516
-0.52938545	night .	-0.45988607
-1.3106647	to .	-0.1517603
-1.2758017	think .	-0.082138516
-1.0541943	about .	-0.19125976
-0.9685369	that .	-0.4665131
-0.9916727	left .	-0.082138516
-0.6958182	him .	-0.1517603
-1.1666422	of .	-0.19125976
-1.1135397	were .	-0.082138516
-0.77970666	sweet .	-0.082138516
-1.0454156	true .	-0.082138516
-1.2436424	did .	-0.082138516
-1.2426606	do .	-0.23803733
-0.74632967	right .	-0.28785512
-0.79814637	out .	-0.19351183
-1.2661847	all .	-0.082138516
-1.0988842	music .	-0.082138516
-0.94836485	called .	-0.082138516
-0.5140881	me .	-0.29120907
-1.2906275	be .	-0.082138516
-1.3983749	on .	-0.082138516
-1.4433606	&quot; .	-0.49454182
-1.2274244	my .	-0.082138516
-0.5056745	here .	-0.23311669
-1.256409	could .	-0.19125976
-0.93764186	see .	-0.1517603
-0.9858074	are .	-0.19275986
-0.8342304	know .	-0.3552353
-1.044857	you .	-0.5173297
-0.96074724	up .	-0.13328087
-0.87937045	off .	-0.082138516
-0.9779454	away .	-0.082138516
-1.0231465	by .	-0.082138516
-0.8845881	before .	-0.082138516
-1.0812726	more .	-0.082138516
-1.3214054	so .	-0.23803733
-1.2265139	no .	-0.082138516
-0.77970666	song .	-0.082138516
-0.884645	come .	-0.1517603
-0.97343856	go .	-0.1517603
-0.89057064	not .	-0.24801621
-0.9916727	believe .	-0.082138516
-0.5638974	happening .	-0.082138516
-0.8845881	God .	-0.082138516
-0.8845881	wrecked .	-0.082138516
-0.77970666	insanity .	-0.082138516
-0.49056453	lunacy .	-0.19125976
-0.8845881	problem .	-0.082138516
-0.7299444	please .	-0.36297604
-0.5638974	Right .	-0.16713172
-0.77970666	course .	-0.19125976
-1.1196578	us .	-0.19125976
-0.98780036	Oh .	-0.082138516
-0.5638974	insist .	-0.082138516
-0.77970666	Shit .	-0.082138516
-0.37352398	Mia .	-0.1583762
-0.9684211	going .	-0.19125976
-0.94836485	after .	-0.082138516
-0.76366526	better .	-0.1517603
-0.77970666	early .	-0.082138516
-0.9916727	tomorrow .	-0.082138516
-0.60489535	Okay .	-0.44561028
-0.5779873	good .	-0.17249292
-0.77970666	died .	-0.082138516
-0.5337664	No .	-0.10695734
-0.3418261	fine .	-0.082138516
-0.94836485	wait .	-0.082138516
-0.67203385	her .	-0.5390673
-0.9779454	happy .	-0.082138516
-0.6743957	am .	-0.082138516
-1.1898493	&apos;t .	-0.082138516
-0.94836485	guess .	-0.082138516
-0.41267678	sorry .	-0.3451181
-1.1597548	call .	-0.082138516
-0.44747275	back .	-0.12255924
-0.6623896	minutes .	-0.082138516
-0.5638974	lunch .	-0.082138516
-0.5282561	done .	-0.13328087
-0.6024786	Thanks .	-0.19125976
-0.6623896	coming .	-0.082138516
-0.5638974	entrance .	-0.082138516
-0.59522104	there .	-0.36885113
-0.77970666	worst .	-0.082138516
-1.1770463	why .	-0.082138516
-0.906209	people .	-0.082138516
-1.2464652	can .	-0.082138516
-0.77970666	working .	-0.082138516
-1.1172404	well .	-0.082138516
-0.3418261	today .	-0.19125976
-1.3376619	like .	-0.082138516
-0.8845881	four .	-0.082138516
-0.8845881	things .	-0.082138516
-0.71343225	now .	-0.22007658
-0.46377733	fun .	-0.13328087
-0.5638974	climbers .	-0.082138516
-0.5638974	houses .	-0.082138516
-1.1401186	this .	-0.1517603
-0.3418261	familiar .	-0.082138516
-1.1172404	long .	-0.082138516
-0.45022613	time .	-0.16883497
-0.9916727	else .	-0.082138516
-0.77970666	together .	-0.082138516
-0.77970666	disappointed .	-0.082138516
-0.5638974	Lex .	-0.082138516
-0.7185659	nothing .	-0.19125976
-0.5638974	finest .	-0.082138516
-1.0077357	got .	-0.19125976
-0.8845881	ready .	-0.082138516
-1.0851579	&apos; .	-0.082138516
-1.2286756	with .	-0.082138516
-1.068124	Hey .	-0.082138516
-1.1346446	really .	-0.082138516
-0.8845881	while .	-0.082138516
-1.0851579	place .	-0.082138516
-1.0471117	stop .	-0.082138516
-0.37024733	home .	-0.16883497
-1.1296136	doing .	-0.082138516
-0.8845881	kidding .	-0.082138516
-0.5638974	rug .	-0.082138516
-1.1196578	said .	-0.082138516
-0.5638974	insulting .	-0.082138516
-0.77970666	boxes .	-0.082138516
-0.45022613	club .	-0.314963
-0.9779454	Sebastian .	-0.082138516
-0.5638974	Samba .	-0.082138516
-0.3418261	tapas .	-0.19125976
-0.9916727	meet .	-0.082138516
-0.94836485	anyone .	-0.082138516
-0.53556323	Yes .	-0.4295072
-0.53832746	jazz .	-0.25970665
-0.77970666	matter .	-0.1517603
-0.5638974	hermit .	-0.082138516
-1.0231465	serious .	-0.082138516
-1.1657124	then .	-0.082138516
-0.8008565	guy .	-0.19125976
-0.5638974	blow .	-0.082138516
-0.5638974	gold .	-0.082138516
-0.77970666	plan .	-0.082138516
-0.3418261	future .	-0.082138516
-0.3418261	Shanghaied .	-0.082138516
-0.8845881	romantic .	-0.082138516
-0.8845881	everybody .	-0.082138516
-0.77970666	dirty .	-0.082138516
-0.8845881	word .	-0.082138516
-0.8845881	acting .	-0.082138516
-0.9916727	life .	-0.082138516
-0.5638974	ropes .	-0.19125976
-0.5638974	tired .	-0.082138516
-0.77970666	classic .	-0.082138516
-0.5638974	Ali .	-0.082138516
-0.5638974	locks .	-0.082138516
-1.1988137	from .	-0.082138516
-0.5638974	ashes .	-0.082138516
-0.8845881	welcome .	-0.19125976
-0.6623896	man .	-0.29042184
-0.5638974	Excellent .	-0.082138516
-1.0471117	work .	-0.082138516
-0.78767234	play .	-0.13328087
-0.77970666	setlist .	-0.082138516
-0.58977157	yeah .	-0.082138516
-1.0052999	mean .	-0.13328087
-1.0812726	other .	-0.1517603
-0.5638974	correct .	-0.082138516
-0.5638974	system .	-0.082138516
-0.77970666	Great .	-0.19125976
-0.5638974	decision .	-0.082138516
-0.8845881	whatever .	-0.082138516
-0.6623896	yourself .	-0.082138516
-0.77970666	Hello .	-0.082138516
-1.0746427	nice .	-0.082138516
-0.538192	way .	-0.19351183
-0.5638974	Karen .	-0.082138516
-0.6024786	Seb .	-0.1517603
-0.76366526	saying .	-0.082138516
-0.7381662	Yeah .	-0.3994189
-0.5638974	fired .	-0.082138516
-0.9445042	too .	-0.19125976
-0.77970666	late .	-0.082138516
-0.5638974	warning .	-0.082138516
-0.5638974	Christmas .	-0.082138516
-0.5638974	decorations .	-0.082138516
-0.5638974	Year .	-0.082138516
-1.129341	’ .	-0.082138516
-0.5638974	scan .	-0.082138516
-0.5638974	Rights .	-0.082138516
-0.5638974	classroom .	-0.082138516
-0.5638974	Jamal .	-0.082138516
-0.6320512	Hi .	-0.12815426
-0.49056453	Carlo .	-0.082138516
-0.77970666	Nice .	-0.082138516
-0.5638974	writer .	-0.082138516
-0.5638974	building .	-0.082138516
-0.8845881	lot .	-0.082138516
-0.9188228	talking .	-0.082138516
-0.2729166	exciting .	-0.13328087
-0.77970666	drink .	-0.082138516
-0.9916727	front .	-0.082138516
-0.77970666	suggestion .	-0.082138516
-0.5638974	ivories .	-0.082138516
-0.94836485	through .	-0.082138516
-0.8845881	far .	-0.082138516
-0.5638974	asshole .	-0.082138516
-0.77970666	week .	-0.082138516
-1.0471117	playing .	-0.082138516
-0.5638974	firefighter .	-0.082138516
-0.58977157	actress .	-0.13328087
-1.2406334	look .	-0.082138516
-0.7299444	anything .	-0.082138516
-0.8845881	coffee .	-0.082138516
-0.5638974	barista .	-0.082138516
-0.5638974	set .	-0.082138516
-0.9916727	movies .	-0.19125976
-0.58977157	idea .	-0.082138516
-0.5638974	bears .	-0.082138516
-0.5638974	thrilling .	-0.082138516
-0.5638974	franchise .	-0.082138516
-0.9188228	keys .	-0.082138516
-0.5638974	Please .	-0.082138516
-0.5638974	Prius .	-0.082138516
-0.94836485	does .	-0.082138516
-0.5638974	ribbon .	-0.082138516
-0.5638974	comfortable .	-0.082138516
-0.6252038	much .	-0.082138516
-0.5638974	choice .	-0.082138516
-0.77970666	strange .	-0.082138516
-0.7849972	something .	-0.13328087
-0.5638974	chin .	-0.082138516
-0.8845881	head .	-0.082138516
-0.5638974	antenna .	-0.082138516
-0.5638974	faster .	-0.082138516
-0.77970666	terrible .	-0.082138516
-0.5638974	armor .	-0.082138516
-0.5638974	Weirdo .	-0.082138516
-0.77970666	Really .	-0.082138516
-1.0746427	lovely .	-0.082138516
-0.5638974	wool .	-0.082138516
-0.8845881	Greg .	-0.19125976
-0.5638974	soon .	-0.082138516
-0.77447855	Bye .	-0.1517603
-0.5638974	refund .	-0.082138516
-0.9779454	check .	-0.082138516
-0.3418261	Friday .	-0.082138516
-0.6885546	okay .	-0.082138516
-0.5638974	gates .	-0.082138516
-0.77970666	Casablanca .	-0.082138516
-0.3418261	Wow .	-0.082138516
-0.77970666	amazing .	-0.082138516
-0.77970666	month .	-0.082138516
-0.41144916	great .	-0.21350558
-0.8845881	stuff .	-0.082138516
-0.5638974	Beek .	-0.082138516
-0.5638974	Webb .	-0.082138516
-0.94836485	history .	-0.082138516
-0.5638974	L.A .	-0.082138516
-0.8845881	everything .	-0.082138516
-0.77970666	roll .	-0.082138516
-0.58977157	guys .	-0.082138516
-0.58977157	shoot .	-0.082138516
-0.5638974	lockdown .	-0.082138516
-0.5638974	company .	-0.082138516
-0.5638974	Nevada .	-0.082138516
-0.77970666	library .	-0.082138516
-0.5638974	section .	-0.082138516
-0.5638974	tapes .	-0.082138516
-0.27417138	incredible .	-0.12255924
-0.8845881	plays .	-0.082138516
-0.77970666	bedroom .	-0.082138516
-1.0231465	years .	-0.082138516
-0.77970666	OC .	-0.082138516
-0.5638974	lawyer .	-0.082138516
-0.5638974	lawyers .	-0.082138516
-0.5638974	actresses .	-0.082138516
-0.5638974	playwright .	-0.082138516
-0.3418261	kaka .	-0.082138516
-0.5638974	given .	-0.082138516
-0.5638974	instead .	-0.082138516
-0.5638974	context .	-0.082138516
-0.8845881	different .	-0.082138516
-0.5638974	languages .	-0.082138516
-0.2729166	relaxing .	-0.1517603
-0.77970666	note .	-0.082138516
-0.5638974	103 .	-0.082138516
-0.94836485	over .	-0.19125976
-0.5638974	stake .	-0.082138516
-0.3418261	fellas .	-0.082138516
-0.5638974	trail .	-0.082138516
-0.5638974	melody .	-0.082138516
-0.8845881	trumpet .	-0.082138516
-0.5638974	player .	-0.082138516
-0.94836485	dying .	-0.082138516
-0.5638974	vine .	-0.082138516
-0.5638974	die .	-0.082138516
-0.5638974	watch .	-0.082138516
-0.5638974	Dolan .	-0.082138516
-0.49056453	show .	-0.082138516
-0.5638974	Rialto .	-0.082138516
-0.3418261	research .	-0.082138516
-0.5638974	&apos;clock .	-0.082138516
-0.77970666	wonderful .	-0.082138516
-1.0902048	dream .	-0.082138516
-0.77970666	rules .	-0.082138516
-0.5638974	babe .	-0.082138516
-0.3418261	forgot .	-0.082138516
-0.6743957	tonight .	-0.13328087
-0.5638974	changed .	-0.082138516
-0.5638974	Josh .	-0.082138516
-0.5638974	setup .	-0.082138516
-0.8845881	theater .	-0.082138516
-0.3418261	days .	-0.19125976
-0.58977157	bad .	-0.082138516
-0.5638974	cold .	-0.082138516
-0.5638974	second .	-0.082138516
-0.5638974	Indonesia .	-0.082138516
-0.5638974	changing .	-0.082138516
-0.5638974	resort .	-0.082138516
-0.5638974	Amazing .	-0.082138516
-0.77970666	Nicaragua .	-0.082138516
-0.5638974	developed .	-0.082138516
-0.5638974	underdeveloped .	-0.082138516
-0.77970666	safe .	-0.082138516
-0.77970666	script .	-0.082138516
-0.49056453	Keith .	-0.082138516
-0.5638974	busy .	-0.082138516
-0.5638974	combo .	-0.082138516
-0.3418261	cool .	-0.1517603
-0.5638974	pays .	-0.082138516
-0.5638974	end .	-0.082138516
-0.5638974	point .	-0.082138516
-0.6743957	chicken .	-0.19125976
-0.77970666	Lighthouse .	-0.082138516
-0.77970666	gig .	-0.082138516
-0.3437946	job .	-0.19351183
-0.5638974	triumph .	-0.082138516
-0.5638974	paid .	-0.082138516
-0.3418261	yet .	-0.082138516
-0.5638974	lately .	-0.082138516
-0.5638974	deal .	-0.082138516
-0.5638974	Universal .	-0.082138516
-0.5638974	imprint .	-0.082138516
-0.77970666	road .	-0.082138516
-0.5638974	merchandising .	-0.082138516
-0.5638974	Yup .	-0.082138516
-0.5638974	Monk .	-0.082138516
-0.5638974	revolutionaries .	-0.082138516
-0.8845881	alright .	-0.082138516
-0.6623896	baby .	-0.19351183
-0.5638974	Boston .	-0.082138516
-0.77970666	bye .	-0.082138516
-0.8845881	nervous .	-0.082138516
-0.5638974	terrified .	-0.082138516
-0.5638974	45 .	-0.082138516
-0.7433417	Boise .	-0.19125976
-0.5638974	list .	-0.082138516
-1.068124	tour .	-0.19125976
-0.77970666	rehearse .	-0.082138516
-0.5638974	weeks .	-0.082138516
-0.3418261	record .	-0.082138516
-0.77970666	successful .	-0.082138516
-0.5638974	important .	-0.082138516
-0.8845881	matters .	-0.082138516
-0.5638974	forgotten .	-0.082138516
-0.5638974	experience .	-0.082138516
-0.77970666	enjoy .	-0.082138516
-0.5638974	Mojo .	-0.082138516
-0.5638974	Thursday .	-0.082138516
-0.47133827	beautiful .	-0.1517603
-0.8845881	keyboard .	-0.082138516
-0.58977157	lip .	-0.082138516
-0.5638974	nose .	-0.082138516
-0.3418261	further .	-0.082138516
-0.5638974	moody .	-0.082138516
-0.77970666	myself .	-0.082138516
-0.49056453	anymore .	-0.1517603
-0.5638974	number .	-0.082138516
-0.5638974	news .	-0.082138516
-0.5638974	director .	-0.082138516
-0.8845881	quiet .	-0.082138516
-0.5638974	neighbors .	-0.082138516
-0.3418261	sense .	-0.082138516
-0.5638974	police .	-0.082138516
-0.77970666	enough .	-0.082138516
-0.5638974	30 .	-0.082138516
-0.5638974	Frank .	-0.082138516
-0.77970666	Paris .	-0.082138516
-0.5638974	process .	-0.082138516
-0.5638974	story .	-0.082138516
-0.5638974	storyteller .	-0.082138516
-0.5638974	Barefoot .	-0.082138516
-0.5638974	Park .	-0.082138516
-0.77970666	Good .	-0.082138516
-0.5638974	draw .	-0.082138516
-0.77970666	Chelsea .	-0.082138516
-0.5638974	Mommy .	-0.082138516
-0.5638974	York .	-0.082138516
-0.5638974	bass .	-0.082138516
-1.6918657	<s> the	-0.0906112
-1.2434368	&apos;s the	-0.082138516
-1.3938887	and the	-0.082138516
-2.5203328	. the	-0.082138516
-0.6063118	in the	-0.26183817
-1.618383	is the	-0.13328087
-1.0530112	at the	-0.082138516
-0.9289044	drop the	-0.082138516
-1.5910777	to the	-0.17249292
-1.7219663	about the	-0.082138516
-2.0500968	that the	-0.082138516
-0.95440805	of the	-0.082138516
-1.8005176	was the	-0.082138516
-2.0440168	what the	-0.082138516
-1.135143	into the	-0.082138516
-1.6073349	out the	-0.082138516
-0.8301639	all the	-0.15312979
-1.9153035	me the	-0.082138516
-1.2032564	be the	-0.25970665
-0.68884146	on the	-0.11289192
-2.1214428	&quot; the	-0.082138516
-1.4981432	, the	-0.082138516
-1.7351296	see the	-0.082138516
-1.5268835	are the	-0.082138516
-1.905082	for the	-0.19125976
-1.6399689	when the	-0.082138516
-1.5486373	let the	-0.19125976
-2.1364367	you the	-0.082138516
-1.1506892	up the	-0.082138516
-0.801849	off the	-0.45988607
-1.2704171	around the	-0.082138516
-0.8971803	hear the	-0.082138516
-1.9110945	so the	-0.082138516
-1.8485318	not the	-0.082138516
-2.5378475	? the	-0.082138516
-2.0553906	- the	-0.082138516
-1.8895243	&apos;re the	-0.082138516
-1.1915137	after the	-0.082138516
-1.5641656	call the	-0.082138516
-1.5720607	back the	-0.082138516
-1.1915137	open the	-0.082138516
-1.6759677	How the	-0.082138516
-1.3226738	like the	-0.13328087
-1.9177086	this the	-0.082138516
-1.1376405	make the	-0.082138516
-1.2570517	got the	-0.082138516
-1.0853606	crowd the	-0.082138516
-1.0981077	with the	-0.082138516
-1.0853606	while the	-0.082138516
-1.525297	said the	-0.082138516
-0.5482807	change the	-0.082138516
-0.7575016	from the	-0.082138516
-1.3247099	play the	-0.19125976
-1.2394198	mean the	-0.082138516
-0.6484395	alone the	-0.082138516
-1.1915137	through the	-0.082138516
-1.2704171	remember the	-0.082138516
-1.3826277	playing the	-0.082138516
-0.9289044	saving the	-0.082138516
-1.2008281	check the	-0.082138516
-0.9289044	past the	-0.082138516
-0.37779963	across the	-0.19125976
-1.0853606	cut the	-0.082138516
-0.6484395	reenacting the	-0.082138516
-1.0853606	&apos;Cause the	-0.082138516
-0.9289044	played the	-0.082138516
-0.6484395	hijacked the	-0.082138516
-1.2793493	feel the	-0.082138516
-1.3408887	start the	-0.082138516
-0.6484395	dropping the	-0.082138516
-1.0853606	turn the	-0.082138516
-1.3908825	tour the	-0.082138516
-0.6484395	build the	-0.082138516
-0.6484395	during the	-0.082138516
-2.8558724	the temperature	-0.082138516
-2.1216958	&apos;s in	-0.082138516
-0.6550953	temperature in	-0.082138516
-2.1711776	that in	-0.082138516
-1.9543458	of in	-0.082138516
-1.9016517	was in	-0.082138516
-1.6244127	be in	-0.082138516
-2.0825171	on in	-0.082138516
-1.2152134	live in	-0.082138516
-1.4719535	maybe in	-0.082138516
-2.1090603	you in	-0.082138516
-1.8264294	up in	-0.082138516
-1.5578694	off in	-0.082138516
-0.6550953	rhythms in	-0.082138516
-0.6550953	ballads in	-0.082138516
-1.7445431	come in	-0.082138516
-1.5112351	thing in	-0.082138516
-1.9500841	not in	-0.082138516
-2.6293218	? in	-0.082138516
-2.0029085	&apos;re in	-0.082138516
-1.6111574	back in	-0.082138516
-1.305527	coming in	-0.082138516
-1.4926665	there in	-0.082138516
-0.6550953	convention in	-0.082138516
-1.1038103	things in	-0.082138516
-0.9416899	crammed in	-0.082138516
-0.9416899	disappointed in	-0.082138516
-0.8503432	someone in	-0.7151586
-1.2989972	stay in	-0.082138516
-1.3654372	girl in	-0.082138516
-0.9416899	sitting in	-0.082138516
-1.2152134	them in	-0.082138516
-1.4719535	guy in	-0.082138516
-1.1038103	acting in	-0.082138516
-0.6550953	luck in	-0.082138516
-1.4200058	playing in	-0.082138516
-1.7227616	look in	-0.082138516
-0.6550953	Knight in	-0.082138516
-0.6550953	spark in	-0.082138516
-0.6550953	cute in	-0.082138516
-0.6550953	hide in	-0.082138516
-0.76685846	being in	-0.19125976
-0.9416899	house in	-0.082138516
-1.1038103	plays in	-0.082138516
-0.6550953	born in	-0.082138516
-0.6550953	flophouse in	-0.082138516
-0.6550953	pain in	-0.082138516
-0.9416899	finally in	-0.082138516
-0.6550953	Not in	-0.082138516
-0.9416899	myself in	-0.082138516
-0.6550953	shoots in	-0.082138516
-0.6550953	lived in	-0.082138516
-2.4049768	in downtown	-0.082138516
-0.669639	downtown Los	-0.082138516
-0.669639	Los Angeles	-0.082138516
-2.5186834	<s> is	-0.082138516
-2.3282986	it is	-0.082138516
-2.9525933	. is	-0.082138516
-0.66008115	Angeles is	-0.082138516
-1.9657311	that is	-0.082138546
-2.220476	what is	-0.082138516
-1.4592655	name is	-0.082138516
-2.0836947	for is	-0.082138516
-1.3214002	sun is	-0.082138516
-1.5462198	thing is	-0.082138516
-2.0581727	? is	-0.1517603
-1.117969	problem is	-0.082138516
-0.3824404	Turner is	-0.19125976
-1.6168758	What is	-0.082138516
-1.3916574	It is	-0.082138516
-1.772795	How is	-0.082138516
-1.7672634	why is	-0.082138516
-0.85822976	this is	-0.1583762
-0.951388	party is	-0.082138516
-1.2336013	casting is	-0.082138516
-1.5035554	place is	-0.082138516
-1.39034	jazz is	-0.082138516
-1.4498599	work is	-0.082138516
-1.7747489	mean is	-0.082138516
-1.4542208	saying is	-0.082138516
-1.1227099	Carlo is	-0.082138516
-0.951388	This is	-0.082138516
-0.951388	musician is	-0.082138516
-1.117969	stuff is	-0.082138516
-1.2382411	bad is	-0.082138516
-0.951388	Nicaragua is	-0.082138516
-1.1227099	Keith is	-0.082138516
-0.66008115	hell is	-0.082138516
-0.66008115	madeness is	-0.082138516
-2.3998404	is 29	-0.082138516
-0.669639	29 °	-0.082138516
-0.669639	° C	-0.082138516
-2.6303115	<s> ...	-0.082138516
-1.5785966	it ...	-0.36297604
-1.5536149	&apos;s ...	-0.24801621
-1.6552283	and ...	-0.1517603
-1.8540992	is ...	-0.082138516
-0.6467199	C ...	-0.082138516
-1.728397	to ...	-0.13328087
-2.0076272	I ...	-0.082138516
-2.023371	that ...	-0.082138516
-1.7907087	but ...	-0.082138516
-1.7775972	was ...	-0.082138516
-1.2984147	just ...	-0.16883497
-1.5634811	into ...	-0.082138516
-1.5706149	me ...	-0.19125976
-1.1984193	be ...	-0.082138546
-1.962158	on ...	-0.082138516
-2.0922573	&quot; ...	-0.23803733
-1.5677258	or ...	-0.082138516
-1.0806738	sit ...	-0.082138516
-1.9100546	are ...	-0.082138516
-1.560646	know ...	-0.19351183
-2.1062407	you ...	-0.082138516
-1.4144342	And ...	-0.082138516
-1.594461	want ...	-0.082138516
-1.415919	so ...	-0.36297604
-1.4573776	thing ...	-0.082138516
-1.5130852	us ...	-0.082138516
-1.8642422	&apos;re ...	-0.082138516
-1.7576427	good ...	-0.19125976
-0.6467199	uhm ...	-0.082138516
-1.6267084	her ...	-0.082138516
-0.94971067	thought ...	-0.19125976
-1.4615788	&apos;t ...	-0.16883497
-1.5824986	two ...	-0.082138516
-1.7132096	if ...	-0.082138516
-1.7273443	can ...	-0.082138516
-0.99239105	well ...	-0.19125976
-1.5198696	like ...	-0.082138516
-0.6467199	inbox ...	-0.082138516
-1.7536613	now ...	-0.082138516
-1.2214401	this ...	-0.21871759
-0.9256301	room ...	-0.082138516
-0.9256301	party ...	-0.082138516
-0.9256301	real ...	-0.082138516
-1.2727721	take ...	-0.082138516
-1.0806738	ready ...	-0.082138516
-1.5433749	find ...	-0.082138516
-1.0806738	while ...	-0.082138516
-1.0806738	somewhere ...	-0.082138516
-1.2129664	because ...	-0.082138516
-0.6467199	Laura ...	-0.082138516
-1.2337291	mean ...	-0.082138516
-1.3733838	care ...	-0.082138516
-1.5296229	way ...	-0.082138516
-0.6467199	validated ...	-0.082138516
-0.9256301	piano ...	-0.082138516
-0.9256301	week ...	-0.082138516
-1.2632607	movies ...	-0.082138516
-1.4326701	much ...	-0.082138516
-1.556317	been ...	-0.082138516
-0.9256301	bedroom ...	-0.082138516
-0.6467199	soap ...	-0.082138516
-0.7571263	band ...	-0.19125976
-0.6467199	Orleans ...	-0.082138516
-0.9256301	somebody ...	-0.082138516
-0.6467199	writing ...	-0.082138516
-0.6467199	nickname ...	-0.082138516
-1.3630993	job ...	-0.082138516
-0.9256301	ass ...	-0.082138516
-0.6467199	Because ...	-0.082138516
-0.6467199	stage ...	-0.082138516
-0.6467199	records ...	-0.082138516
-0.6467199	y-you ...	-0.082138516
-1.0806738	matters ...	-0.082138516
-0.6467199	earlier ...	-0.082138516
-0.6467199	sticking ...	-0.082138516
-0.6467199	prettier ...	-0.082138516
-0.6467199	once ...	-0.082138516
-0.6467199	smiled ...	-0.082138516
-0.6467199	Leapt ...	-0.082138516
-2.4824183	&apos;s at	-0.082138516
-2.458449	and at	-0.082138516
-1.6330358	him at	-0.082138516
-2.131114	was at	-0.082138516
-2.6710942	you at	-0.082138516
-1.9739616	up at	-0.082138516
-1.6350317	off at	-0.082138516
-1.4878826	better at	-0.082138516
-1.3478874	tomorrow at	-0.082138516
-0.6657222	humanity at	-0.082138516
-1.2572083	looking at	-0.082138516
-1.3478874	front at	-0.082138516
-0.6585938	look at	-0.082138546
-1.4229671	years at	-0.082138516
-0.6657222	olds at	-0.082138516
-2.657184	the night	-0.082138516
-1.9108115	at night	-0.082138516
-2.5703604	that night	-0.082138516
-1.4724921	good night	-0.1517603
-1.4374107	lovely night	-0.19125976
-1.1416521	every night	-0.082138516
-0.6678191	Monday night	-0.082138516
-0.96665233	Good night	-0.082138516
-2.1728199	it will	-0.082138516
-1.6597818	night will	-0.082138516
-2.4217231	I will	-0.082138516
-2.6186106	that will	-0.082138516
-1.9681729	people will	-0.082138516
-1.5111506	will drop	-0.082138516
-1.743021	should drop	-0.082138516
-2.1806998	<s> to	-0.14224964
-2.0924551	it to	-0.082138516
-2.003282	&apos;s to	-0.7151586
-0.93055093	drop to	-0.082138516
-1.7311227	about to	-0.082138516
-2.064103	that to	-0.082138516
-1.27404	left to	-0.082138516
-1.7264247	what to	-0.082138516
-1.4465013	had to	-0.082138516
-1.3824245	me to	-0.23803733
-1.996072	on to	-0.082138516
-2.1368055	&quot; to	-0.082138516
-0.6493019	nickel to	-0.082138516
-1.0877231	came to	-0.082138516
-1.5897365	or to	-0.082138516
-0.70659816	have to	-0.12972525
-1.7628541	one to	-0.082138516
-1.3447952	down to	-0.082138516
-0.15409644	used to	-0.12255924
-1.9116282	you to	-0.11555577
-1.3630744	get to	-0.082138516
-1.7619672	up to	-0.19125976
-0.70063245	want to	-0.12729178
-0.6298331	need to	-0.11555577
-1.6953783	come to	-0.082138516
-0.9949858	thing to	-0.082138516
-0.93755615	go to	-0.082138546
-0.6493019	swear to	-0.082138516
-0.52661425	going to	-0.10412859
-1.7835562	good to	-0.082138516
-0.6493019	Denver to	-0.082138516
-0.66846925	happy to	-0.082138516
-1.0875267	back to	-0.082138516
-0.29915282	trying to	-0.13328087
-1.1945326	Come to	-0.082138516
-1.4626575	time to	-0.082138516
-1.3447952	nothing to	-0.082138516
-1.6744376	got to	-0.082138516
-1.0877231	ready to	-0.19125976
-0.93055093	waiting to	-0.082138516
-0.83411145	talk to	-0.082138516
-1.5912958	love to	-0.082138516
-1.0877231	welcome to	-0.082138516
-0.6493019	easy to	-0.082138516
-0.5912385	nice to	-0.29042184
-1.048671	way to	-0.082138516
-0.7601233	wanted to	-0.1517603
-1.0877231	s to	-0.082138516
-0.93055093	Nice to	-0.19125976
-0.6493019	able to	-0.082138516
-1.4465013	much to	-0.082138516
-0.6493019	stretches to	-0.082138516
-0.6493019	ride to	-0.082138516
-1.5768967	been to	-0.082138516
-1.3364891	years to	-0.082138516
-0.6493019	modest to	-0.082138516
-1.2826756	band to	-0.082138516
-0.6493019	listen to	-0.082138516
-0.93055093	went to	-0.082138516
-0.93055093	nostalgic to	-0.082138516
-0.6493019	refuse to	-0.082138516
-0.6493019	paying to	-0.082138516
-0.66846925	wants to	-0.19351183
-0.6493019	rhythm to	-0.082138516
-1.0877231	nervous to	-0.082138516
-0.6493019	lucky to	-0.082138516
-0.29915282	supposed to	-0.1517603
-0.6493019	lives to	-0.082138516
-0.6493019	Pleasure to	-0.082138516
-0.6493019	colors to	-0.082138516
-0.6493019	expecting to	-0.082138516
-0.98421055	<s> I	-0.3880395
-0.97677195	and I	-0.16022272
-1.3565023	. I	-0.25675085
-2.0000343	... I	-0.082138516
-1.1763139	think I	-0.11555577
-1.5331116	that I	-0.11555577
-1.0320334	but I	-0.11555577
-0.93386275	still I	-0.082138516
-0.95394695	what I	-0.15267278
-1.9483044	do I	-0.082138516
-0.83653975	Cause I	-0.082138516
-1.6305989	as I	-0.082138516
-1.7980503	all I	-0.082138516
-1.9997569	&quot; I	-0.20339616
-1.0186673	, I	-0.32479826
-1.849019	here I	-0.082138516
-1.6050555	or I	-0.082138516
-1.8514409	have I	-0.082138516
-0.95208424	maybe I	-0.23803733
-1.7819662	one I	-0.082138516
-1.586459	know I	-0.42410743
-0.97188616	when I	-0.082138516
-1.5974678	who I	-0.082138516
-1.092487	before I	-0.082138516
-1.6044196	say I	-0.082138516
-0.86409694	so I	-0.16798252
-1.9582081	! I	-0.082138516
-1.6950039	? I	-0.12255924
-1.386684	- I	-0.34999827
-1.6639713	Oh I	-0.082138516
-0.76278067	where I	-0.082138516
-1.6605622	her I	-0.082138516
-0.7645459	am I	-0.082138516
-0.9567675	thought I	-0.082138516
-1.2006341	guess I	-0.082138516
-1.0540174	sorry I	-0.082138516
-1.1066818	if I	-0.082138516
-1.6718655	why I	-0.082138516
-1.3627208	can I	-0.082138516
-1.5421842	like I	-0.082138516
-1.5666311	someone I	-0.082138516
-0.95208424	&apos; I	-0.23803733
-1.2264299	because I	-0.13328087
-0.591399	then I	-0.082138516
-0.65103185	fault I	-0.082138516
-0.93386275	though I	-0.082138516
-1.2480981	mean I	-0.082138516
-0.65103185	Although I	-0.082138516
-0.65103185	do- I	-0.082138516
-1.5666311	Yeah I	-0.082138516
-0.93386275	I- I	-0.082138516
-0.93386275	admit I	-0.082138516
-1.2006341	just- I	-0.082138516
-0.93386275	Can I	-0.082138516
-1.2813777	told I	-0.082138516
-1.092487	But I	-0.082138516
-1.092487	&apos;Cause I	-0.082138516
-0.93386275	know- I	-0.082138516
-1.092487	sure I	-0.082138516
-0.65103185	embrace I	-0.082138516
-0.93386275	wish I	-0.19125976
-0.93386275	mean- I	-0.082138516
-0.65103185	understand- I	-0.082138516
-0.93386275	If I	-0.082138516
-0.93386275	Maybe I	-0.082138516
-2.5582495	and think	-0.082138516
-1.5570465	I think	-0.17221287
-2.3570306	just think	-0.082138516
-2.1727633	they think	-0.082138516
-2.396828	you think	-0.082138516
-1.8413124	&apos;t think	-0.15943839
-1.7571493	really think	-0.082138516
-0.6678191	know.I think	-0.082138516
-2.2282271	is about	-0.082138516
-1.9840702	think about	-0.082138516
-1.8326339	what about	-0.1517603
-2.189496	for about	-0.082138516
-2.3188381	you about	-0.082138516
-2.2555003	&apos;re about	-0.19125976
-1.4842138	better about	-0.082138516
-1.6625215	What about	-0.082138516
-1.0240183	How about	-0.082138516
-1.4218826	talk about	-0.082138516
-1.4819186	care about	-0.082138516
-0.5592439	talking about	-0.1517603
-1.1326051	stuff about	-0.082138516
-0.9613076	thinking about	-0.082138516
-1.1326051	nervous about	-0.082138516
-0.38442782	passionate about	-0.082138516
-0.66512495	stories about	-0.082138516
-1.6790638	<s> that	-0.2501183
-2.0663722	and that	-0.082138516
-1.8694422	. that	-0.3714194
-2.0120206	in that	-0.082138516
-1.0537187	is that	-0.11555577
-1.9111191	to that	-0.1517603
-0.97211033	think that	-0.082138516
-1.7500359	about that	-0.082138516
-2.0935478	that that	-0.082138516
-1.837912	but that	-0.082138516
-1.5266626	was that	-0.082138516
-1.5774	do that	-0.082138516
-0.93386275	knew that	-0.082138516
-1.6305989	as that	-0.082138516
-1.6255212	out that	-0.082138516
-1.7980503	all that	-0.082138516
-1.092487	lights that	-0.19125976
-0.9986147	music that	-0.19125976
-1.180663	on that	-0.22007658
-2.1692643	&quot; that	-0.23803733
-1.5792474	, that	-0.24801621
-1.3832792	know that	-0.082138516
-0.93386275	shine that	-0.082138516
-0.65103185	canyons that	-0.082138516
-0.6690839	say that	-0.16713172
-1.629901	so that	-0.082138516
-1.5655916	need that	-0.082138516
-1.2813777	believe that	-0.082138516
-1.3081722	! that	-0.2978988
-1.5442839	us that	-0.082138516
-1.801733	good that	-0.082138516
-1.462379	thought that	-0.082138516
-1.2089695	window that	-0.082138516
-1.4549018	give that	-0.082138516
-0.65103185	bet that	-0.082138516
-1.911264	like that	-0.082138516
-1.2813777	else that	-0.082138516
-1.603849	make that	-0.082138516
-1.7429141	with that	-0.19125976
-1.3968734	stop that	-0.082138516
-0.8036339	doing that	-0.13328087
-1.4710582	club that	-0.082138516
-1.4475513	guy that	-0.082138516
-1.2894056	man that	-0.082138516
-1.6835188	mean that	-0.082138516
-1.5529196	way that	-0.082138516
-1.4043498	saying that	-0.082138516
-1.1011542	eyes that	-0.082138516
-0.93386275	admit that	-0.082138516
-0.93386275	curt that	-0.082138516
-1.2089695	idea that	-0.082138516
-1.4559729	much that	-0.19125976
-0.93386275	strange that	-0.082138516
-0.93386275	means that	-0.082138516
-1.147312	something that	-0.19125976
-1.1011542	put that	-0.082138516
-0.93386275	Is that	-0.082138516
-0.65103185	charts that	-0.082138516
-0.65103185	statement that	-0.082138516
-0.9011246	dream that	-0.082138516
-1.092487	&apos;s- that	-0.082138516
-0.93386275	movie that	-0.082138516
-0.65103185	voice that	-0.082138516
-1.092487	haul that	-0.082138516
-0.65103185	hearts that	-0.1517603
-2.1933372	I left	-0.082138516
-2.2368264	my left	-0.082138516
-0.6693231	barrooms left	-0.082138516
-2.6083682	&apos;s him	-0.082138516
-1.358068	left him	-0.082138516
-1.6921048	let him	-0.082138516
-0.6678191	push him	-0.082138516
-1.1585348	call him	-0.082138516
-1.3976579	with him	-0.082138516
-1.358068	told him	-0.082138516
-0.96665233	took him	-0.082138516
-2.8558724	the Greyhound	-0.082138516
-2.654039	that station	-0.082138516
-0.6693231	Greyhound station	-0.082138516
-2.3282025	this station	-0.082138516
-3.6626723	<s> West	-0.082138516
-2.9735417	<s> of	-0.082138516
-1.140006	day of	-0.76091605
-2.9617085	. of	-0.19125976
-1.9151161	think of	-0.082138516
-0.66037625	West of	-0.082138516
-0.9282063	out of	-0.082138516
-1.199566	all of	-0.082138516
-2.40128	&quot; of	-0.082138516
-1.4333118	one of	-0.23803733
-1.8383697	people of	-0.082138516
-1.3322879	fun of	-0.082138516
-0.66037625	bunch of	-0.082138516
-1.3932502	bit of	-0.082138516
-1.256628	because of	-0.082138516
-0.9519653	heart of	-0.082138516
-1.4516816	care of	-0.082138516
-0.30229747	sort of	-0.082138516
-1.1188164	lot of	-0.082138516
-0.9519653	heat of	-0.082138516
-1.3227546	front of	-0.082138516
-0.55613846	kind of	-0.082138516
-0.66037625	perspective of	-0.082138516
-1.5103048	much of	-0.082138516
-0.38255703	waste of	-0.19125976
-0.9519653	City of	-0.6060141
-1.1188164	cut of	-0.082138516
-0.9519653	everyone of	-0.082138516
-0.66037625	part of	-0.082138516
-1.397582	start of	-0.082138516
-0.66037625	track of	-0.082138516
-0.38255703	couple of	-0.082138516
-0.66037625	piece of	-0.082138516
-0.66037625	million of	-0.082138516
-2.2994325	of Santa	-0.082138516
-0.669639	Santa Fe	-0.082138516
-1.7588191	<s> we	-0.28045237
-1.7691345	and we	-0.082138516
-2.330636	. we	-0.082138516
-1.4420313	think we	-0.082138516
-1.9811335	that we	-0.082138516
-2.2428105	what we	-0.082138516
-2.0945458	do we	-0.082138516
-1.9240409	all we	-0.082138516
-2.4310265	&quot; we	-0.19125976
-1.8521873	, we	-0.12255924
-1.9388491	here we	-0.082138516
-1.5785687	are we	-0.082138516
-1.7070493	so we	-0.19125976
-2.7339349	? we	-0.082138516
-1.7593522	where we	-0.082138516
-1.2380434	after we	-0.082138516
-2.1385193	&apos;t we	-0.082138516
-1.2380434	guess we	-0.082138516
-2.0175858	there we	-0.082138516
-1.3714237	if we	-0.082138516
-1.5586768	well we	-0.082138516
-1.9073443	now we	-0.082138516
-0.95370173	Tonight we	-0.082138516
-1.6049854	then we	-0.082138516
-1.1213686	whatever we	-0.082138516
-0.95370173	whenever we	-0.082138516
-0.6612627	however we	-0.082138516
-0.95370173	glad we	-0.082138516
-0.95370173	Maybe we	-0.082138516
-0.6612627	mess we	-0.23803733
-2.3459268	we were	-0.082138516
-1.6427871	they were	-0.082138516
-1.9759254	you were	-0.082138546
-1.9681729	people were	-0.082138516
-1.2675341	guys were	-0.082138516
-1.7445743	were 17	-0.082138516
-2.1189575	<s> but	-0.12255924
-1.8977641	it but	-0.082138516
-2.2574513	is but	-0.082138516
-0.6660211	17 but	-0.082138516
-2.2022114	me but	-0.082138516
-2.637308	&quot; but	-0.082138516
-1.7620348	, but	-0.12255924
-2.1950147	know but	-0.082138516
-1.6411328	No but	-0.082138516
-1.593221	long but	-0.082138516
-1.2562805	them but	-0.082138516
-1.4897286	saying but	-0.082138516
-1.6771874	Yeah but	-0.082138516
-0.6660211	cancer but	-0.082138516
-2.3805091	<s> he	-0.11555577
-2.2304869	. he	-0.16883497
-2.0534713	that he	-0.082138516
-1.6380117	him he	-0.082138516
-2.1944864	of he	-0.082138516
-1.2788018	but he	-0.082138516
-1.190702	did he	-0.19125976
-2.6541324	&quot; he	-0.13328087
-2.3121736	, he	-0.082138516
-2.2934964	&apos;t he	-0.082138516
-1.0248628	because he	-0.082138516
-1.1361216	But he	-0.082138516
-1.1361216	&apos;s- he	-0.19125976
-1.3568171	it was	-0.12815426
-3.101808	. was	-0.082138516
-1.6918994	I was	-0.082138516
-2.0222132	that was	-0.082138516
-1.4989988	he was	-0.082138516
-1.8260002	what was	-0.082138516
-1.7190628	who was	-0.082138516
-1.466814	she was	-0.11555577
-1.5773098	audition was	-0.082138516
-1.6541098	What was	-0.082138516
-1.4145064	It was	-0.082138516
-1.2725415	How was	-0.082138516
-2.0534248	there was	-0.19125976
-1.818333	why was	-0.082138516
-1.9330978	jazz was	-0.082138516
-1.5314263	guy was	-0.082138516
-1.4203495	That was	-0.082138516
-0.95954055	aunt was	-0.082138516
-0.6642306	communicate was	-0.082138516
-0.6642306	water was	-0.082138516
-2.740119	&apos;s sweet	-0.082138516
-2.2506664	was sweet	-0.082138516
-2.6901112	it true	-0.082138516
-2.67599	&apos;s true	-0.082138516
-2.2244413	was true	-0.082138516
-1.884615	come true	-0.082138516
-1.7691864	make true	-0.082138516
-3.6310318	<s> still	-0.082138516
-2.3015902	not still	-0.082138516
-2.809773	<s> did	-0.23803733
-2.7628055	I did	-0.082138516
-2.0510058	he did	-0.082138516
-1.5995244	what did	-0.082138516
-2.6898725	&quot; did	-0.082138516
-2.7490985	you did	-0.082138516
-2.5815878	! did	-0.082138516
-1.6798501	What did	-0.082138516
-1.2803241	How did	-0.23803733
-1.8546486	why did	-0.082138516
-0.6669192	Harris did	-0.082138516
-1.5550995	<s> what	-0.35545564
-1.8126128	&apos;s what	-0.082138516
-2.665439	. what	-0.082138516
-2.0717244	is what	-0.1517603
-2.4990144	... what	-0.082138516
-1.8511566	about what	-0.082138516
-2.0282533	of what	-0.082138516
-1.6957276	did what	-0.082138516
-2.0610929	do what	-0.082138516
-1.6690457	into what	-0.082138516
-2.0690546	me what	-0.082138516
-2.3645442	&quot; what	-0.13328087
-1.9836053	my what	-0.082138516
-2.157751	, what	-0.1517603
-1.8460674	see what	-0.082138516
-1.2099482	know what	-0.12255924
-1.6561999	for what	-0.19125976
-2.3913753	you what	-0.082138516
-0.9136302	hear what	-0.082138516
-1.6396483	not what	-0.082138516
-1.3173617	believe what	-0.082138516
-2.0024722	! what	-0.082138516
-2.696194	? what	-0.082138516
-2.3139138	- what	-0.082138516
-1.1154367	Sorry what	-0.082138516
-2.024902	like what	-0.082138516
-0.9496608	Then what	-0.082138516
-1.6648475	really what	-0.082138516
-1.6739001	love what	-0.082138516
-0.65919715	cares what	-0.082138516
-1.3222698	yourself what	-0.082138516
-1.4491365	saying what	-0.082138516
-0.55536556	what- what	-0.082138516
-0.65919715	borrow what	-0.082138516
-1.2302994	Why what	-0.082138516
-0.9496608	For what	-0.082138516
-1.1154367	So what	-0.082138516
-2.6901112	it had	-0.082138516
-2.1825562	I had	-0.1517603
-2.6186106	that had	-0.082138516
-2.1983607	they had	-0.082138516
-2.1889865	you had	-0.082138516
-2.274369	<s> do	-0.314963
-2.7306297	. do	-0.082138516
-1.0912201	to do	-0.18774486
-2.274355	I do	-0.13328087
-2.1809535	we do	-0.082138516
-1.979934	he do	-0.19125976
-1.582911	what do	-0.49454182
-1.4078546	&apos;d do	-0.082138516
-2.4974322	&quot; do	-0.082138516
-2.521015	, do	-0.082138516
-1.415385	could do	-0.082138516
-1.5232791	maybe do	-0.082138516
-1.2400963	when do	-0.23803733
-2.5344017	you do	-0.082138516
-1.9477493	she do	-0.082138516
-1.7757443	where do	-0.082138516
-1.7605841	would do	-0.082138516
-1.562862	&apos;t do	-0.1517603
-1.6431419	What do	-0.082138516
-1.2882595	why do	-0.19125976
-2.0691879	gonna do	-0.19125976
-1.3351393	else do	-0.082138516
-0.8598204	wanna do	-0.23803733
-0.9571956	actually do	-0.082138516
-2.66054	<s> Cause	-0.13328087
-2.731754	a Cause	-0.082138516
-1.567866	&apos; Cause	-0.082138516
-2.4264066	<s> just	-0.12255924
-1.8530275	it just	-0.082138516
-1.8401963	&apos;s just	-0.082138516
-2.309041	and just	-0.082138516
-3.0002115	. just	-0.082138516
-2.1277504	is just	-0.082138516
-1.5979612	I just	-0.2549699
-1.9554231	he just	-0.082138516
-2.0270634	was just	-0.082138516
-2.0264325	they just	-0.082138516
-2.4414127	&quot; just	-0.082138516
-1.8548748	, just	-0.082138516
-1.9004856	could just	-0.082138516
-1.7104168	or just	-0.082138516
-1.4263645	&apos;ll just	-0.082138516
-1.9860833	have just	-0.082138516
-2.0985756	know just	-0.082138516
-1.9711114	&apos;m just	-0.082138516
-2.0667522	you just	-0.082138516
-0.9542821	has just	-0.082138516
-2.0761704	not just	-0.082138516
-1.9232384	she just	-0.082138516
-2.3979325	- just	-0.082138516
-1.5587054	&apos;re just	-0.13328087
-1.2325209	would just	-0.082138516
-0.66155857	Potato just	-0.082138516
-0.66155857	He just	-0.082138516
-0.9542821	shining just	-0.23803733
-0.38302398	basically just	-0.082138516
-2.4375284	just knew	-0.082138516
-1.1454405	everybody knew	-0.082138516
-3.6626723	<s> Summer	-0.082138516
-2.6184602	it :	-0.082138516
-0.6675189	Summer :	-0.082138516
-1.4333425	by :	-0.082138516
-1.7274982	say :	-0.082138516
-1.357826	man :	-0.082138516
-0.9660552	5 :	-0.082138516
-0.6675189	options :	-0.082138516
-0.6675189	6 :	-0.082138516
-0.6675189	8 :	-0.082138516
-1.6207894	: Sunday	-0.082138516
-0.669639	Sunday nights	-0.082138516
-1.975054	I &apos;d	-0.082138516
-2.3675823	we &apos;d	-0.082138516
-2.0691462	she &apos;d	-0.082138516
-1.4458551	&apos;d sink	-0.082138516
-2.5569735	it into	-0.082138516
-0.6663203	sink into	-0.082138516
-1.9786066	get into	-0.082138516
-0.9636749	running into	-0.082138516
-0.6663203	packed into	-0.082138516
-0.9636749	crammed into	-0.082138516
-0.6663203	sneaking into	-0.082138516
-0.9636749	Get into	-0.082138516
-1.9369365	play into	-0.082138516
-1.1361216	head into	-0.082138516
-0.6663203	turns into	-0.082138516
-0.6663203	jumped into	-0.082138516
-0.6663203	tumbled into	-0.082138516
-1.772062	into our	-0.082138516
-2.0156815	now our	-0.082138516
-1.9094946	got our	-0.082138516
-1.3644934	take our	-0.082138516
-1.2705368	our seats	-0.082138516
-2.2856348	<s> right	-0.43654984
-2.08077	&apos;s right	-0.1517603
-2.1459446	the right	-0.082138516
-2.0264058	but right	-0.082138516
-1.8083783	just right	-0.082138516
-0.66452855	seats right	-0.082138516
-1.210735	all right	-0.24801621
-2.0720634	, right	-0.23803733
-1.9656714	one right	-0.082138516
-2.1147838	are right	-0.082138516
-1.8032255	Oh right	-0.082138516
-2.2357996	&apos;re right	-0.082138516
-1.6232517	doing right	-0.19125976
-1.4780219	work right	-0.082138516
-0.9601287	heat right	-0.082138516
-1.2531458	idea right	-0.082138516
-1.2504988	Just right	-0.082138516
-0.66452855	saxophonist right	-0.082138516
-0.66452855	All right	-0.082138516
-2.4983249	&apos;s as	-0.082138516
-2.0049634	right as	-0.082138516
-1.2562805	live as	-0.082138516
-2.6683977	, as	-0.082138516
-0.6660211	someday as	-0.082138516
-2.1894984	not as	-0.082138516
-1.9978005	good as	-0.082138516
-1.1352398	crazy as	-0.082138516
-2.2826772	&apos;t as	-0.082138516
-1.593221	long as	-0.082138516
-1.1352398	romantic as	-0.082138516
-0.6660211	pitched as	-0.082138516
-0.6660211	interesting as	-0.082138516
-0.6660211	Foolish as	-0.19125976
-2.283358	<s> they	-0.082138516
-1.5946592	and they	-0.16883497
-2.3527288	. they	-0.082138516
-2.0222132	that they	-0.082138516
-1.8260002	what they	-0.082138516
-2.1473036	do they	-0.082138516
-0.9641051	as they	-0.19351183
-2.548112	&quot; they	-0.082138516
-2.2611988	, they	-0.082138516
-1.243676	when they	-0.19351183
-1.5287774	And they	-0.082138516
-1.3407589	believe they	-0.082138516
-1.7870266	where they	-0.082138516
-1.1299862	until they	-0.082138516
-1.9060156	if they	-0.19125976
-1.818333	why they	-0.082138516
-0.6642306	til they	-0.082138516
-1.2493516	just- they	-0.082138516
-0.95954055	dreams they	-0.082138516
-0.6642306	call- they	-0.082138516
-2.2260096	they dimmed	-0.082138516
-1.9072922	it out	-0.13328087
-0.6669192	dimmed out	-0.082138516
-1.5503366	made out	-0.082138516
-2.2324352	be out	-0.19125976
-1.7161944	find out	-0.082138516
-1.4328643	anything out	-0.082138516
-0.6669192	evens out	-0.082138516
-0.6669192	looked out	-0.082138516
-0.6669192	miles out	-0.082138516
-0.6669192	space out	-0.082138516
-0.6669192	pointing out	-0.082138516
-2.2856348	<s> all	-0.22007658
-2.0969884	it all	-0.082138516
-3.114716	. all	-0.082138516
-1.8594445	at all	-0.082138516
-1.9313169	about all	-0.082138516
-1.7326345	out all	-0.082138516
-2.2711995	on all	-0.082138516
-2.5617628	&quot; all	-0.082138516
-2.2681246	, all	-0.082138516
-2.1147838	are all	-0.082138516
-0.66452855	chasing all	-0.19125976
-1.1118503	us all	-0.082138516
-1.9499309	now all	-0.082138516
-1.6282488	then all	-0.082138516
-1.7822984	from all	-0.082138516
-0.9601287	street all	-0.082138516
-0.9601287	samba all	-0.082138516
-0.66452855	watching all	-0.082138516
-1.1308573	&apos;Cause all	-0.082138516
-2.0622036	the lights	-0.16713172
-2.1915915	<s> a	-0.110621564
-2.123016	it a	-0.082138516
-1.5821325	&apos;s a	-0.110621564
-1.8441381	and a	-0.082138516
-2.7367303	. a	-0.082138516
-1.1664306	in a	-0.11555577
-1.639719	is a	-0.082138516
-1.6931677	at a	-0.082138516
-1.9111191	to a	-0.082138516
-1.7500359	about a	-0.082138516
-1.8619145	that a	-0.082138516
-1.3791412	of a	-0.13328087
-1.5626745	were a	-0.082138516
-1.8373396	was a	-0.082138516
-1.6381764	did a	-0.082138516
-2.0779347	what a	-0.082138516
-0.7120385	had a	-0.082138516
-1.6609684	just a	-0.082138516
-1.1425208	into a	-0.082138516
-1.399755	be a	-0.082138546
-1.0798248	on a	-0.25139412
-0.93386275	inside a	-0.082138516
-1.9997569	&quot; a	-0.082138516
-1.092487	without a	-0.082138516
-0.65103185	Hopped a	-0.082138516
-0.8964467	have a	-0.18541728
-1.7596214	see a	-0.082138516
-1.9289258	know a	-0.082138516
-1.2076017	for a	-0.082138546
-1.9306747	you a	-0.082138516
-1.7634861	get a	-0.082138516
-1.6245139	want a	-0.082138516
-1.5763469	not a	-0.082138516
-1.5442839	us a	-0.19125976
-1.9304414	&apos;re a	-0.082138546
-1.2975848	am a	-0.082138516
-1.2006341	open a	-0.082138516
-1.9113159	there a	-0.082138516
-0.9969036	like a	-0.082138516
-1.9527428	this a	-0.082138516
-1.2664797	got a	-0.082138516
-0.65103185	squeeze a	-0.082138516
-1.3277072	with a	-0.082138516
-1.1122147	find a	-0.082138516
-1.2813777	meet a	-0.082138516
-0.65103185	With a	-0.082138516
-1.2027824	from a	-0.082138516
-1.092487	s a	-0.082138516
-0.7621329	grab a	-0.19125976
-0.65103185	Meet a	-0.082138516
-1.3968734	playing a	-0.082138516
-1.2006341	Just a	-0.082138516
-1.1403043	been a	-0.082138516
-0.65103185	near a	-0.082138516
-0.93386275	spent a	-0.082138516
-0.93386275	played a	-0.082138516
-0.93386275	missed a	-0.082138516
-0.65103185	Without a	-0.082138516
-0.83653975	start a	-0.43654984
-0.65103185	bucks a	-0.082138516
-0.65103185	plus a	-0.082138516
-0.65103185	such a	-0.082138516
-0.93386275	reach a	-0.082138516
-0.65103185	hurts a	-0.082138516
-0.65103185	captured a	-0.082138516
-2.765111	a Technicolor	-0.082138516
-3.5635283	<s> world	-0.082138516
-1.8340563	the world	-0.082138516
-0.6690219	Technicolor world	-0.082138516
-1.1441398	whole world	-0.082138516
-2.6352954	it made	-0.082138516
-2.8282595	I made	-0.082138516
-2.315343	we made	-0.23803733
-2.0692012	he made	-0.082138516
-1.4999002	world made	-0.082138516
-1.7604414	&apos;ve made	-0.082138516
-0.6678191	Made- made	-0.082138516
-0.6678191	tailor made	-0.082138516
-2.035899	the music	-0.082138516
-2.2579799	of music	-0.082138516
-2.6483727	a music	-0.082138516
-2.159061	your music	-0.082138516
-1.9890699	jazz music	-0.082138516
-0.6684201	elevator music	-0.082138516
-2.6679442	and machine	-0.082138516
-2.7100365	it called	-0.082138516
-1.1441398	station called	-0.082138516
-0.6690219	Jessica called	-0.082138516
-1.567195	club called	-0.082138516
-2.2562556	&apos;s me	-0.082138516
-2.2660875	and me	-0.082138516
-1.7979491	at me	-0.082138516
-2.3219776	to me	-0.082138516
-1.8635308	about me	-0.082138516
-2.0998383	just me	-0.082138516
-1.2336013	called me	-0.082138516
-2.1725357	on me	-0.082138516
-2.0706646	know me	-0.082138516
-0.9863464	for me	-0.25139412
-1.1039584	let me	-0.082138516
-1.3916574	by me	-0.082138516
-1.1740322	want me	-0.23803733
-1.1064496	tell me	-0.082138516
-1.3214002	than me	-0.082138516
-0.9704646	give me	-0.082138516
-1.592289	like me	-0.082138516
-1.7884102	got me	-0.082138516
-1.117969	help me	-0.082138516
-1.1366234	find me	-0.082138516
-1.117969	kidding me	-0.082138516
-0.951388	letting me	-0.082138516
-1.117969	hit me	-0.082138516
-0.951388	fire me	-0.19125976
-1.3259431	wanted me	-0.19125976
-0.66008115	hypnotize me	-0.19125976
-1.3214002	told me	-0.082138516
-0.66008115	Excuse me	-0.082138516
-0.951388	took me	-0.082138516
-1.2336013	over me	-0.082138516
-1.117969	Let me	-0.082138516
-0.66008115	having me	-0.082138516
-0.951388	liked me	-0.082138516
-0.66008115	kill me	-0.082138516
-1.4898187	will be	-0.082138516
-1.1872499	to be	-0.20398201
-0.706664	could be	-0.12815426
-0.8336522	&apos;ll be	-0.12729178
-2.1443088	you be	-0.1517603
-1.5937313	never be	-0.082138516
-1.3507719	gotta be	-0.082138516
-1.7103313	should be	-0.082138516
-1.4915825	better be	-0.082138516
-0.9968327	would be	-0.082138546
-1.9680831	can be	-0.082138516
-0.91113126	gonna be	-0.15244451
-0.6663203	T-to be	-0.082138516
-2.70117	<s> on	-0.082138516
-1.9304347	&apos;s on	-0.082138516
-1.55823	him on	-0.082138516
-1.9167656	was on	-0.082138516
-2.0174046	me on	-0.082138516
-1.2248627	be on	-0.16883497
-1.1062756	sit on	-0.23803733
-0.8434945	down on	-0.082138516
-2.2988558	you on	-0.082138516
-1.8228236	get on	-0.082138516
-1.8369802	up on	-0.082138516
-1.5638012	off on	-0.082138516
-0.655971	bang on	-0.082138516
-0.6773887	come on	-0.17512475
-1.8462473	go on	-0.082138516
-1.6136689	not on	-0.082138516
-2.0201454	&apos;re on	-0.082138516
-1.8577942	good on	-0.082138516
-1.6165266	back on	-0.082138516
-1.2184023	Come on	-0.082138516
-0.655971	sat on	-0.082138516
-0.94338566	sitting on	-0.082138516
-0.655971	pissed on	-0.082138516
-0.655971	worked on	-0.082138516
-0.94338566	signed on	-0.082138516
-0.655971	fissure on	-0.082138516
-0.655971	D.O.A. on	-0.082138516
-0.655971	shop on	-0.082138516
-1.3028675	movies on	-0.082138516
-1.430987	keep on	-0.082138516
-0.55324715	put on	-0.082138516
-0.655971	turning on	-0.082138516
-0.655971	stumbled on	-0.082138516
-0.655971	close on	-0.082138516
-1.2184023	dying on	-0.082138516
-0.655971	hold on	-0.082138516
-0.655971	Chicken on	-0.36297604
-1.3153435	chicken on	-0.082138516
-0.655971	holding on	-0.082138516
-0.655971	rat-tat-tat on	-0.082138516
-1.1062756	turn on	-0.082138516
-1.1062756	keyboard on	-0.082138516
-0.655971	concentrating on	-0.082138516
-0.655971	Bring on	-0.082138516
-0.655971	Bennett on	-0.082138516
-0.655971	Gonzalez on	-0.082138516
-0.655971	Wheeler on	-0.082138516
-0.655971	Eddie on	-0.082138516
-2.6738229	that screen	-0.082138516
-2.6468434	and live	-0.082138516
-2.1938975	to live	-0.082138516
-2.409105	on live	-0.082138516
-1.2698115	live inside	-0.082138516
-0.669457	sunset inside	-0.082138516
-2.6951013	to each	-0.082138516
-1.7685531	into each	-0.082138516
-0.96844864	inside each	-0.082138516
-1.4021746	see each	-0.19125976
-0.96844864	seeing each	-0.082138516
-1.3678628	each scene	-0.082138516
-0.6801823	<s> &quot;	-0.46452618
-2.0875645	it &quot;	-0.082138516
-1.8362598	&apos;s &quot;	-0.23803733
-0.77117026	. &quot;	-1.6242388
-1.9683101	the &quot;	-0.082138516
-1.887173	is &quot;	-0.082138516
-0.73259264	... &quot;	-1.1411273
-1.526114	night &quot;	-0.082138516
-2.0776052	to &quot;	-0.082138516
-1.5109259	him &quot;	-0.082138516
-1.3434892	Cause &quot;	-0.082138516
-1.4640534	: &quot;	-0.082138516
-1.7767109	all &quot;	-0.082138516
-1.9632474	a &quot;	-0.082138516
-1.1935239	called &quot;	-0.082138516
-1.9223595	me &quot;	-0.082138516
-1.8865141	be &quot;	-0.082138516
-0.5869763	&quot; &quot;	-0.3195539
-1.5005211	, &quot;	-0.36297604
-1.0869341	came &quot;	-0.082138516
-1.7404541	see &quot;	-0.082138516
-1.3434892	down &quot;	-0.082138516
-0.9300014	heights &quot;	-0.19125976
-2.1469874	you &quot;	-0.082138516
-1.2728289	sun &quot;	-0.082138516
-1.2026242	away &quot;	-0.082138516
-1.3350911	by &quot;	-0.082138516
-0.88047576	say &quot;	-0.36297604
-1.4640534	more &quot;	-0.082138516
-1.5976536	no &quot;	-0.082138516
-0.9300014	low &quot;	-0.082138516
-1.2228065	! &quot;	-0.66400605
-0.95366055	? &quot;	-1.0828135
-1.5294452	us &quot;	-0.082138516
-1.6053334	going &quot;	-0.082138516
-0.9300014	worst &quot;	-0.082138516
-0.9300014	working &quot;	-0.082138516
-1.5316279	like &quot;	-0.19125976
-1.9252535	this &quot;	-0.082138516
-1.461273	time &quot;	-0.082138516
-1.2728289	else &quot;	-0.082138516
-1.4280492	always &quot;	-0.082138516
-0.6490143	yes &quot;	-0.082138516
-1.5124254	home &quot;	-0.19125976
-1.1935239	anyone &quot;	-0.082138516
-1.0869341	romantic &quot;	-0.082138516
-0.9300014	classic &quot;	-0.082138516
-0.6490143	rope-a-dope &quot;	-0.082138516
-1.6653247	mean &quot;	-0.19125976
-0.5004527	.. &quot;	-0.36297604
-0.9300014	late &quot;	-0.082138516
-0.6490143	P.D. &quot;	-0.082138516
-0.9300014	musician &quot;	-0.082138516
-1.2026242	actress &quot;	-0.082138516
-0.6490143	reimagining &quot;	-0.082138516
-0.6490143	Bears &quot;	-0.082138516
-0.6490143	clear &quot;	-0.082138516
-0.9300014	Casablanca &quot;	-0.082138516
-0.6490143	Notorious &quot;	-0.082138516
-1.0869341	plays &quot;	-0.082138516
-0.6490143	Stick &quot;	-0.29042184
-0.6490143	Bird &quot;	-0.082138516
-0.6490143	definitely &quot;	-0.082138516
-1.0869341	alright &quot;	-0.082138516
-0.6490143	dancing &quot;	-0.082138516
-1.281564	baby &quot;	-0.19125976
-0.6490143	floor &quot;	-0.082138516
-0.6490143	recording &quot;	-0.082138516
-1.0869341	haul &quot;	-0.082138516
-0.9300014	Seine &quot;	-0.082138516
-0.6490143	key &quot;	-0.082138516
-0.6490143	Say &quot;	-0.082138516
-3.6091251	<s> without	-0.082138516
